{"model_type": "xgboost", "opt_type": 0, "learner": {"attributes": {}, "feature_names": [], "feature_types": [], "gradient_booster": {"model": {"gbtree_model_param": {"num_parallel_tree": "1", "num_trees": "10"}, "iteration_indptr": [0, 1, 2, 3, 4, 5, 6, 7, 8, 9, 10], "tree_info": [0, 0, 0, 0, 0, 0, 0, 0, 0, 0], "trees": [{"base_weights": [-2.4172145e-10, -0.00045194954, 0.0016191351, 0.0014732098, -0.0009657995, 0.044665266, 0.001473521, 0.00031744177, 0.0055792714, -0.0025874958, -0.00022147271, 0.027426152, 0.18138574, 0.0093806535, 0.0009893937, -0.00022224641, 0.007268653, 0.22176836, 0.00549376, -0.002616412, 0.03572986, -0.0029915508, 0.00088215456, 0.07399174, -0.0022242707, 0.2586897, -0.009679419, 0.041446697, 0.0067661568, 0.008035866, 0.00057284493, 5.712695e-05, -0.018151617, 0.0045924927, 0.0626715, 0.14435367, -0.0075284373, 0.0077451724, -0.0010005812, -0.0033790378, -0.00029222955, -0.0030626825, 0.13111572, 0.0049269637, -3.2170068e-05, 0.026447374, 0.36612204, 0.02311066, -0.021678459, 0.42032528, -0.009679419, 0.14755893, 0.023657562, -0.01747702, 0.009663382, -0.027664855, 0.009224838, -0.0017137467, 0.002691714, 0.0042965426, -7.97816e-05, -0.006341336, 0.009786402, 0.0008255975, 0.009402924, 0.010046218, 0.14011894, 0.0020120253, 0.01056659, -0.00040216924, 0.06653051, -0.00072575914, -0.0020311305, 0.0018945456, -0.0008136826, -0.0006607337, -0.002548582, 0.071552135, -0.009881074, 0.019550052, 0.0014213934, 0.002598652, -0.00014900259, 0.016236724, -0.010728023, -0.0075284373, 0.14011894, -0.0038809255, 0.056628752, -0.011075489, 0.010942535, -0.0075284373, 0.15662876, 0.07495938, 0.0060013817, 0.015030575, 0.0006072869, 0.0040401635, -0.007929953, 0.029787537, 0.0022759717, -0.011137961, -0.00156476, 0.00913224, 0.0020660672, -0.0014404089, 0.0007843016, 0.0010649054, -0.0030810928], "categories": [], "categories_nodes": [], "categories_segments": [], "categories_sizes": [], "default_left": [0, 0, 0, 0, 0, 0, 0, 0, 0, 0, 0, 0, 0, 0, 0, 0, 0, 0, 0, 0, 0, 0, 0, 0, 0, 0, 0, 0, 0, 0, 0, 0, 0, 0, 0, 0, 0, 0, 0, 0, 0, 0, 0, 0, 0, 0, 0, 0, 0, 0, 0, 0, 0, 0, 0, 0, 0, 0, 0, 0, 0, 0, 0, 0, 0, 0, 0, 0, 0, 0, 0, 0, 0, 0, 0, 0, 0, 0, 0, 0, 0, 0, 0, 0, 0, 0, 0, 0, 0, 0, 0, 0, 0, 0, 0, 0, 0, 0, 0, 0, 0, 0, 0, 0, 0, 0, 0, 0, 0], "id": 0, "left_children": [1, 3, 5, 7, 9, 11, 13, 15, 17, 19, 21, 23, 25, 27, 29, 31, 33, 35, 37, 39, -1, 41, 43, 45, 47, 49, -1, 51, 53, 55, 57, 59, 61, 63, 65, -1, -1, 67, 69, 71, 73, 75, 77, 79, 81, 83, 85, 87, 89, 91, -1, 93, 95, 97, 99, 101, 103, 105, 107, -1, -1, -1, -1, -1, -1, -1, -1, -1, -1, -1, -1, -1, -1, -1, -1, -1, -1, -1, -1, -1, -1, -1, -1, -1, -1, -1, -1, -1, -1, -1, -1, -1, -1, -1, -1, -1, -1, -1, -1, -1, -1, -1, -1, -1, -1, -1, -1, -1, -1], "loss_changes": [0.20593025, 0.21763985, 0.3848598, 0.21996407, 0.2096135, 0.48291185, 0.23428325, 0.13569663, 0.18699417, 0.19253945, 0.36388102, 0.2555921, 0.38821524, 0.29574648, 0.16928008, 0.16813274, 0.3860957, 0.2682307, 0.14882475, 0.09680843, 0.0, 0.32388818, 0.31478196, 0.99033564, 0.05668824, 0.8130479, 0.0, 0.49862257, 0.22956598, 0.13689268, 0.26384333, 0.15232156, 0.07877211, 0.1223599, 1.4005762, 0.0, 0.0, 0.21541244, 0.19880562, 0.13385051, 0.21580441, 0.1583786, 0.3249768, 0.17834777, 0.2803778, 0.110395804, 0.4066193, 0.30100515, 0.058952913, 0.5117389, 0.0, 0.4908837, 0.1309044, 0.097078286, 0.54240656, 0.021896496, 0.1543496, 0.35002846, 0.31437248, 0.0, 0.0, 0.0, 0.0, 0.0, 0.0, 0.0, 0.0, 0.0, 0.0, 0.0, 0.0, 0.0, 0.0, 0.0, 0.0, 0.0, 0.0, 0.0, 0.0, 0.0, 0.0, 0.0, 0.0, 0.0, 0.0, 0.0, 0.0, 0.0, 0.0, 0.0, 0.0, 0.0, 0.0, 0.0, 0.0, 0.0, 0.0, 0.0, 0.0, 0.0, 0.0, 0.0, 0.0, 0.0, 0.0, 0.0, 0.0, 0.0, 0.0], "parents": [2147483647, 0, 0, 1, 1, 2, 2, 3, 3, 4, 4, 5, 5, 6, 6, 7, 7, 8, 8, 9, 9, 10, 10, 11, 11, 12, 12, 13, 13, 14, 14, 15, 15, 16, 16, 17, 17, 18, 18, 19, 19, 21, 21, 22, 22, 23, 23, 24, 24, 25, 25, 27, 27, 28, 28, 29, 29, 30, 30, 31, 31, 32, 32, 33, 33, 34, 34, 37, 37, 38, 38, 39, 39, 40, 40, 41, 41, 42, 42, 43, 43, 44, 44, 45, 45, 46, 46, 47, 47, 48, 48, 49, 49, 51, 51, 52, 52, 53, 53, 54, 54, 55, 55, 56, 56, 57, 57, 58, 58], "right_children": [2, 4, 6, 8, 10, 12, 14, 16, 18, 20, 22, 24, 26, 28, 30, 32, 34, 36, 38, 40, -1, 42, 44, 46, 48, 50, -1, 52, 54, 56, 58, 60, 62, 64, 66, -1, -1, 68, 70, 72, 74, 76, 78, 80, 82, 84, 86, 88, 90, 92, -1, 94, 96, 98, 100, 102, 104, 106, 108, -1, -1, -1, -1, -1, -1, -1, -1, -1, -1, -1, -1, -1, -1, -1, -1, -1, -1, -1, -1, -1, -1, -1, -1, -1, -1, -1, -1, -1, -1, -1, -1, -1, -1, -1, -1, -1, -1, -1, -1, -1, -1, -1, -1, -1, -1, -1, -1, -1, -1], "split_conditions": [1.29, 977.68, 6.0, 969.94, 14.7, 25.0, 1.35, 1.03, 13.0, 255.0, 59.0, 2.06, 34.3, 38.0, 901.39, 35.3, 967.94, 35.3, 94.0, 98.0, 0.03572986, 1.0, 67.0, 23.0, 22.3, 983.66, -0.009679419, 21.5, 963.76, 11.3, 1000.46, 16.0, 0.97, 31.7, 29.2, 0.14435367, -0.0075284373, 93.0, 30.8, 14.1, 99.0, 0.97, 24.0, 14.8, 14.9, 1009.81, 979.66, 21.9, 4.7, 831.37, -0.009679419, 976.62, 28.2, 13.1, 969.94, 86.0, 13.9, 72.0, 98.0, 0.0042965426, -7.97816e-05, -0.006341336, 0.009786402, 0.0008255975, 0.009402924, 0.010046218, 0.14011894, 0.0020120253, 0.01056659, -0.00040216924, 0.06653051, -0.00072575914, -0.0020311305, 0.0018945456, -0.0008136826, -0.0006607337, -0.002548582, 0.071552135, -0.009881074, 0.019550052, 0.0014213934, 0.002598652, -0.00014900259, 0.016236724, -0.010728023, -0.0075284373, 0.14011894, -0.0038809255, 0.056628752, -0.011075489, 0.010942535, -0.0075284373, 0.15662876, 0.07495938, 0.0060013817, 0.015030575, 0.0006072869, 0.0040401635, -0.007929953, 0.029787537, 0.0022759717, -0.011137961, -0.00156476, 0.00913224, 0.0020660672, -0.0014404089, 0.0007843016, 0.0010649054, -0.0030810928], "split_indices": [2, 3, 1, 3, 0, 0, 2, 2, 1, 1, 1, 2, 0, 1, 3, 0, 3, 0, 1, 1, 0, 4, 1, 0, 0, 3, 0, 0, 3, 0, 3, 1, 2, 0, 0, 0, 0, 1, 0, 0, 1, 2, 0, 0, 0, 3, 3, 0, 2, 3, 0, 3, 0, 0, 3, 1, 0, 1, 1, 0, 0, 0, 0, 0, 0, 0, 0, 0, 0, 0, 0, 0, 0, 0, 0, 0, 0, 0, 0, 0, 0, 0, 0, 0, 0, 0, 0, 0, 0, 0, 0, 0, 0, 0, 0, 0, 0, 0, 0, 0, 0, 0, 0, 0, 0, 0, 0, 0, 0], "split_type": [0, 0, 0, 0, 0, 0, 0, 0, 0, 0, 0, 0, 0, 0, 0, 0, 0, 0, 0, 0, 0, 0, 0, 0, 0, 0, 0, 0, 0, 0, 0, 0, 0, 0, 0, 0, 0, 0, 0, 0, 0, 0, 0, 0, 0, 0, 0, 0, 0, 0, 0, 0, 0, 0, 0, 0, 0, 0, 0, 0, 0, 0, 0, 0, 0, 0, 0, 0, 0, 0, 0, 0, 0, 0, 0, 0, 0, 0, 0, 0, 0, 0, 0, 0, 0, 0, 0, 0, 0, 0, 0, 0, 0, 0, 0, 0, 0, 0, 0, 0, 0, 0, 0, 0, 0, 0, 0, 0, 0], "sum_hessian": [281413.0, 220004.0, 61409.0, 46350.0, 173654.0, 206.0, 61203.0, 36170.0, 10180.0, 54629.0, 119025.0, 184.0, 22.0, 3530.0, 57673.0, 33565.0, 2605.0, 3.0, 10177.0, 54617.0, 12.0, 33910.0, 85115.0, 71.0, 113.0, 16.0, 6.0, 265.0, 3265.0, 3218.0, 54455.0, 33051.0, 514.0, 2486.0, 119.0, 1.0, 2.0, 7557.0, 2620.0, 41123.0, 13494.0, 33893.0, 17.0, 15692.0, 69423.0, 62.0, 9.0, 49.0, 64.0, 10.0, 6.0, 37.0, 228.0, 348.0, 2917.0, 103.0, 3115.0, 26191.0, 28264.0, 731.0, 32320.0, 486.0, 28.0, 2327.0, 159.0, 112.0, 7.0, 7283.0, 274.0, 2617.0, 3.0, 32053.0, 9070.0, 3617.0, 9877.0, 29261.0, 4632.0, 10.0, 7.0, 48.0, 15644.0, 3520.0, 65903.0, 43.0, 19.0, 2.0, 7.0, 41.0, 8.0, 51.0, 13.0, 2.0, 8.0, 20.0, 17.0, 102.0, 126.0, 78.0, 270.0, 65.0, 2852.0, 72.0, 31.0, 308.0, 2807.0, 15286.0, 10905.0, 26510.0, 1754.0], "tree_param": {"num_deleted": "0", "num_feature": "5", "num_nodes": "109", "size_leaf_vector": "1"}}, {"base_weights": [3.3422186e-06, -3.6203688e-05, 0.015839413, 0.0058930507, -0.00010604321, -0.011598989, 0.01893469, -0.0023621446, 0.01163907, -0.002346999, 6.2515865e-05, 0.024437718, -0.01598479, -0.0035023822, 0.114474624, 0.0066127046, 0.027979577, 0.0029738958, -0.004236117, 0.012140439, 1.1327427e-05, 0.019918965, 0.34164956, 0.06516362, -0.025686001, 0.0027240908, -0.014045005, -0.010633681, 0.21260546, 0.047749203, 0.00459065, 0.0024954933, 0.057984892, 0.0027602874, 0.025835434, -0.0056360266, 0.0020845057, -0.00030302632, 0.03744415, -0.0009636051, 0.00034954445, 0.023962954, -0.01110246, 0.13510177, 0.19225858, -0.010321891, 0.14419395, -0.011304268, 0.02239333, 0.00018928394, 0.017137649, -0.0115092555, -0.0029818695, 0.11004605, -0.009994283, 0.027150435, -0.012507042, -0.009092288, 0.0023161138, 0.008470533, -0.0050617666, 0.020796947, -0.010868461, 0.0010418141, -0.0047941906, -0.0013329505, -0.0048583816, 0.066693805, 0.00052327116, -0.0014979212, 0.01910257, 0.04696296, 0.008418258, 0.0024890872, -0.00040568697, 0.00085382286, -3.8377984e-05, -0.0021633909, 0.009342109, 0.14419395, -0.0090409415, 0.14419395, -0.010886369], "categories": [], "categories_nodes": [], "categories_segments": [], "categories_sizes": [], "default_left": [0, 0, 0, 0, 0, 0, 0, 0, 0, 0, 0, 0, 0, 0, 0, 0, 0, 0, 0, 0, 0, 0, 0, 0, 0, 0, 0, 0, 0, 0, 0, 0, 0, 0, 0, 0, 0, 0, 0, 0, 0, 0, 0, 0, 0, 0, 0, 0, 0, 0, 0, 0, 0, 0, 0, 0, 0, 0, 0, 0, 0, 0, 0, 0, 0, 0, 0, 0, 0, 0, 0, 0, 0, 0, 0, 0, 0, 0, 0, 0, 0, 0, 0], "id": 1, "left_children": [1, 3, 5, 7, 9, -1, 11, 13, 15, 17, 19, 21, 23, 25, 27, 29, 31, 33, 35, 37, 39, 41, 43, 45, 47, 49, 51, -1, 53, 55, 57, 59, 61, 63, -1, 65, 67, 69, 71, 73, 75, 77, -1, 79, -1, -1, -1, -1, 81, -1, -1, -1, -1, -1, -1, -1, -1, -1, -1, -1, -1, -1, -1, -1, -1, -1, -1, -1, -1, -1, -1, -1, -1, -1, -1, -1, -1, -1, -1, -1, -1, -1, -1], "loss_changes": [0.1762366, 0.116243266, 0.11899145, 0.15504345, 0.10480115, 0.0, 0.12798682, 0.17918439, 0.15808597, 0.19510794, 0.15953247, 0.81596726, 0.07331244, 0.08734392, 0.1987893, 0.12247166, 0.34624535, 0.090091154, 0.12675482, 0.34290028, 0.08472705, 0.13141742, 0.40783167, 0.4302332, 0.04813371, 0.09527313, 0.048940107, 0.0, 0.31561586, 0.2676106, 0.15390953, 0.123113826, 0.22469968, 0.06780112, 0.0, 0.14762828, 0.19429791, 0.21966241, 0.39680445, 0.23822568, 0.22740354, 0.11881226, 0.0, 0.35706815, 0.0, 0.0, 0.0, 0.0, 0.4745862, 0.0, 0.0, 0.0, 0.0, 0.0, 0.0, 0.0, 0.0, 0.0, 0.0, 0.0, 0.0, 0.0, 0.0, 0.0, 0.0, 0.0, 0.0, 0.0, 0.0, 0.0, 0.0, 0.0, 0.0, 0.0, 0.0, 0.0, 0.0, 0.0, 0.0, 0.0, 0.0, 0.0, 0.0], "parents": [2147483647, 0, 0, 1, 1, 2, 2, 3, 3, 4, 4, 6, 6, 7, 7, 8, 8, 9, 9, 10, 10, 11, 11, 12, 12, 13, 13, 14, 14, 15, 15, 16, 16, 17, 17, 18, 18, 19, 19, 20, 20, 21, 21, 22, 22, 23, 23, 24, 24, 25, 25, 26, 26, 28, 28, 29, 29, 30, 30, 31, 31, 32, 32, 33, 33, 35, 35, 36, 36, 37, 37, 38, 38, 39, 39, 40, 40, 41, 41, 43, 43, 48, 48], "right_children": [2, 4, 6, 8, 10, -1, 12, 14, 16, 18, 20, 22, 24, 26, 28, 30, 32, 34, 36, 38, 40, 42, 44, 46, 48, 50, 52, -1, 54, 56, 58, 60, 62, 64, -1, 66, 68, 70, 72, 74, 76, 78, -1, 80, -1, -1, -1, -1, 82, -1, -1, -1, -1, -1, -1, -1, -1, -1, -1, -1, -1, -1, -1, -1, -1, -1, -1, -1, -1, -1, -1, -1, -1, -1, -1, -1, -1, -1, -1, -1, -1, -1, -1], "split_conditions": [6.57, 843.63, 852.51, 16.8, 11.5, -0.011598989, 1012.66, 5.09, 43.0, 8.8, 11.6, 1012.19, 14.3, 13.3, 56.0, 18.3, 18.8, 255.0, 1009.01, 0.45, 59.0, 1009.97, 27.4, 14.2, 23.2, 13.1, 33.0, -0.010633681, 69.0, 1.29, 20.2, 17.6, 65.0, 1.0, 0.025835434, 1005.15, 57.0, 1011.36, 0.52, 15.8, 68.0, 14.3, -0.01110246, 14.9, 0.19225858, -0.010321891, 0.14419395, -0.011304268, 24.0, 0.00018928394, 0.017137649, -0.0115092555, -0.0029818695, 0.11004605, -0.009994283, 0.027150435, -0.012507042, -0.009092288, 0.0023161138, 0.008470533, -0.0050617666, 0.020796947, -0.010868461, 0.0010418141, -0.0047941906, -0.0013329505, -0.0048583816, 0.066693805, 0.00052327116, -0.0014979212, 0.01910257, 0.04696296, 0.008418258, 0.0024890872, -0.00040568697, 0.00085382286, -3.8377984e-05, -0.0021633909, 0.009342109, 0.14419395, -0.0090409415, 0.14419395, -0.010886369], "split_indices": [2, 3, 3, 0, 0, 0, 3, 2, 1, 0, 0, 3, 0, 0, 1, 0, 0, 1, 3, 2, 1, 3, 0, 0, 0, 0, 1, 0, 1, 2, 0, 0, 1, 4, 0, 3, 1, 3, 2, 0, 1, 0, 0, 0, 0, 0, 0, 0, 0, 0, 0, 0, 0, 0, 0, 0, 0, 0, 0, 0, 0, 0, 0, 0, 0, 0, 0, 0, 0, 0, 0, 0, 0, 0, 0, 0, 0, 0, 0, 0, 0, 0, 0], "split_type": [0, 0, 0, 0, 0, 0, 0, 0, 0, 0, 0, 0, 0, 0, 0, 0, 0, 0, 0, 0, 0, 0, 0, 0, 0, 0, 0, 0, 0, 0, 0, 0, 0, 0, 0, 0, 0, 0, 0, 0, 0, 0, 0, 0, 0, 0, 0, 0, 0, 0, 0, 0, 0, 0, 0, 0, 0, 0, 0, 0, 0, 0, 0, 0, 0, 0, 0, 0, 0, 0, 0, 0, 0, 0, 0, 0, 0, 0, 0, 0, 0, 0, 0], "sum_hessian": [281413.0, 280713.0, 700.0, 3267.0, 277446.0, 37.0, 663.0, 1341.0, 1926.0, 19408.0, 258038.0, 573.0, 90.0, 1329.0, 12.0, 1474.0, 452.0, 5085.0, 14323.0, 1088.0, 256950.0, 566.0, 7.0, 9.0, 81.0, 836.0, 493.0, 5.0, 7.0, 68.0, 1406.0, 245.0, 207.0, 5073.0, 12.0, 11726.0, 2597.0, 730.0, 358.0, 66180.0, 190770.0, 529.0, 37.0, 5.0, 2.0, 8.0, 1.0, 65.0, 16.0, 806.0, 30.0, 70.0, 423.0, 4.0, 3.0, 46.0, 22.0, 115.0, 1291.0, 105.0, 140.0, 185.0, 22.0, 4888.0, 185.0, 10537.0, 1189.0, 3.0, 2594.0, 681.0, 49.0, 25.0, 333.0, 2665.0, 63515.0, 30627.0, 160143.0, 99.0, 430.0, 1.0, 4.0, 1.0, 15.0], "tree_param": {"num_deleted": "0", "num_feature": "5", "num_nodes": "83", "size_leaf_vector": "1"}}, {"base_weights": [5.3255126e-06, -2.4371746e-05, 0.011897524, 0.0043354784, -9.291581e-05, -0.008222384, 0.019612484, -0.0013604992, 0.0122685665, -0.024318434, -5.9560418e-05, 0.086065486, -0.016557848, 0.061157912, 0.009884391, -0.004361711, 0.034400675, 0.011785896, 0.1332475, 0.0018466788, -0.03405437, -0.0008594697, 0.00028245666, 0.36075974, -0.0106687695, -0.028932903, 0.057853352, 0.14330836, 0.051744957, -0.042466383, 0.021471445, -0.00012887416, -0.018777072, 0.026055925, 0.25598666, 0.031554494, 0.008519497, -0.007203861, 0.30894947, -0.011336203, -0.014486876, -0.00037917498, -0.0035149262, 0.0018895243, -0.00042253078, -0.0073575545, 0.46321225, -0.034650397, -0.006745485, 0.2941654, 0.0015163701, 0.025495803, 0.14302789, -0.0138429, -0.007807477, 0.38724336, 0.013694712, 0.016957702, -0.0007439646, -0.0017484085, -0.009148228, 0.004634719, 0.034632545, 0.11190349, -0.0073151533, 0.012307368, -0.010894179, 0.005168859, -0.00094636006, 0.033684116, -0.0047523645, 0.14451364, -0.005486365, 0.050472207, -0.01076857, 0.0028055054, -0.00019907737, -0.00059372815, -0.0046812952, 0.006354535, 0.0005285023, 0.003380298, -0.00016059096, -0.0073575545, 0.19018994, -0.0065479614, -0.012769995, 0.034168646, -0.011331882, 0.15654212, -0.009459425, 0.017071841, -0.012362337, 0.025557937, -0.005549964, 0.0777839, 0.01026973, -0.0073575545, 0.1379877, 0.017688055, 0.0017509813], "categories": [], "categories_nodes": [], "categories_segments": [], "categories_sizes": [], "default_left": [0, 0, 0, 0, 0, 0, 0, 0, 0, 0, 0, 0, 0, 0, 0, 0, 0, 0, 0, 0, 0, 0, 0, 0, 0, 0, 0, 0, 0, 0, 0, 0, 0, 0, 0, 0, 0, 0, 0, 0, 0, 0, 0, 0, 0, 0, 0, 0, 0, 0, 0, 0, 0, 0, 0, 0, 0, 0, 0, 0, 0, 0, 0, 0, 0, 0, 0, 0, 0, 0, 0, 0, 0, 0, 0, 0, 0, 0, 0, 0, 0, 0, 0, 0, 0, 0, 0, 0, 0, 0, 0, 0, 0, 0, 0, 0, 0, 0, 0, 0, 0], "id": 2, "left_children": [1, 3, 5, 7, 9, 11, 13, 15, 17, 19, 21, 23, 25, 27, 29, 31, 33, 35, -1, 37, 39, 41, 43, 45, -1, 47, 49, -1, 51, 53, 55, 57, 59, 61, 63, 65, 67, 69, 71, -1, 73, 75, 77, 79, 81, -1, 83, 85, 87, 89, 91, 93, 95, -1, -1, 97, 99, -1, -1, -1, -1, -1, -1, -1, -1, -1, -1, -1, -1, -1, -1, -1, -1, -1, -1, -1, -1, -1, -1, -1, -1, -1, -1, -1, -1, -1, -1, -1, -1, -1, -1, -1, -1, -1, -1, -1, -1, -1, -1, -1, -1], "loss_changes": [0.09938605, 0.08388951, 0.10897349, 0.19635287, 0.22331983, 0.15468203, 0.20430349, 0.271687, 0.3733298, 0.09686479, 0.07550658, 0.547398, 0.16742554, 0.35168245, 0.25082737, 0.14247432, 0.35574967, 0.11692959, 0.0, 0.291288, 0.019686043, 0.105425924, 0.21903643, 0.20872742, 0.0, 0.019428998, 0.34569475, 0.0, 0.22398281, 0.0033328086, 0.95614135, 0.24069084, 0.08023614, 0.17835625, 0.23876792, 0.16666839, 0.1585753, 0.10704547, 0.17841265, 0.0, 0.18598627, 0.19374476, 0.23504938, 0.14536388, 0.17716463, 0.0, 0.3486809, 0.01155749, 0.12782717, 0.3871642, 0.05440756, 0.19855788, 0.25672504, 0.0, 0.0, 0.22087455, 0.11774857, 0.0, 0.0, 0.0, 0.0, 0.0, 0.0, 0.0, 0.0, 0.0, 0.0, 0.0, 0.0, 0.0, 0.0, 0.0, 0.0, 0.0, 0.0, 0.0, 0.0, 0.0, 0.0, 0.0, 0.0, 0.0, 0.0, 0.0, 0.0, 0.0, 0.0, 0.0, 0.0, 0.0, 0.0, 0.0, 0.0, 0.0, 0.0, 0.0, 0.0, 0.0, 0.0, 0.0, 0.0], "parents": [2147483647, 0, 0, 1, 1, 2, 2, 3, 3, 4, 4, 5, 5, 6, 6, 7, 7, 8, 8, 9, 9, 10, 10, 11, 11, 12, 12, 13, 13, 14, 14, 15, 15, 16, 16, 17, 17, 19, 19, 20, 20, 21, 21, 22, 22, 23, 23, 25, 25, 26, 26, 28, 28, 29, 29, 30, 30, 31, 31, 32, 32, 33, 33, 34, 34, 35, 35, 36, 36, 37, 37, 38, 38, 40, 40, 41, 41, 42, 42, 43, 43, 44, 44, 46, 46, 47, 47, 48, 48, 49, 49, 50, 50, 51, 51, 52, 52, 55, 55, 56, 56], "right_children": [2, 4, 6, 8, 10, 12, 14, 16, 18, 20, 22, 24, 26, 28, 30, 32, 34, 36, -1, 38, 40, 42, 44, 46, -1, 48, 50, -1, 52, 54, 56, 58, 60, 62, 64, 66, 68, 70, 72, -1, 74, 76, 78, 80, 82, -1, 84, 86, 88, 90, 92, 94, 96, -1, -1, 98, 100, -1, -1, -1, -1, -1, -1, -1, -1, -1, -1, -1, -1, -1, -1, -1, -1, -1, -1, -1, -1, -1, -1, -1, -1, -1, -1, -1, -1, -1, -1, -1, -1, -1, -1, -1, -1, -1, -1, -1, -1, -1, -1, -1, -1], "split_conditions": [6.57, 23.0, 59.0, 1.1, 24.0, 15.2, 69.0, 22.0, 1.0, 0.19, 14.5, 35.0, 28.9, 11.6, 77.0, 966.89, 39.3, 1.35, 0.1332475, 1009.63, 32.2, 14.1, 17.1, 14.6, -0.0106687695, 25.0, 45.0, 0.14330836, 24.3, 1009.97, 78.0, 18.9, 0.4, 1001.21, 999.37, 995.11, 32.2, 814.5, 31.2, -0.011336203, 941.12, 62.0, 1.93, 36.0, 843.63, -0.0073575545, 25.0, 38.0, 25.2, 34.3, 1001.05, 996.89, 62.0, -0.0138429, -0.007807477, 14.9, 996.55, 0.016957702, -0.0007439646, -0.0017484085, -0.009148228, 0.004634719, 0.034632545, 0.11190349, -0.0073151533, 0.012307368, -0.010894179, 0.005168859, -0.00094636006, 0.033684116, -0.0047523645, 0.14451364, -0.005486365, 0.050472207, -0.01076857, 0.0028055054, -0.00019907737, -0.00059372815, -0.0046812952, 0.006354535, 0.0005285023, 0.003380298, -0.00016059096, -0.0073575545, 0.19018994, -0.0065479614, -0.012769995, 0.034168646, -0.011331882, 0.15654212, -0.009459425, 0.017071841, -0.012362337, 0.025557937, -0.005549964, 0.0777839, 0.01026973, -0.0073575545, 0.1379877, 0.017688055, 0.0017509813], "split_indices": [2, 1, 1, 2, 1, 0, 1, 1, 4, 2, 0, 1, 0, 0, 1, 3, 0, 2, 0, 3, 0, 0, 0, 0, 0, 0, 1, 0, 0, 3, 1, 0, 2, 3, 3, 3, 0, 3, 0, 0, 3, 1, 2, 1, 3, 0, 1, 1, 0, 0, 3, 3, 1, 0, 0, 0, 3, 0, 0, 0, 0, 0, 0, 0, 0, 0, 0, 0, 0, 0, 0, 0, 0, 0, 0, 0, 0, 0, 0, 0, 0, 0, 0, 0, 0, 0, 0, 0, 0, 0, 0, 0, 0, 0, 0, 0, 0, 0, 0, 0, 0], "split_type": [0, 0, 0, 0, 0, 0, 0, 0, 0, 0, 0, 0, 0, 0, 0, 0, 0, 0, 0, 0, 0, 0, 0, 0, 0, 0, 0, 0, 0, 0, 0, 0, 0, 0, 0, 0, 0, 0, 0, 0, 0, 0, 0, 0, 0, 0, 0, 0, 0, 0, 0, 0, 0, 0, 0, 0, 0, 0, 0, 0, 0, 0, 0, 0, 0, 0, 0, 0, 0, 0, 0, 0, 0, 0, 0, 0, 0, 0, 0, 0, 0, 0, 0, 0, 0, 0, 0, 0, 0, 0, 0, 0, 0, 0, 0, 0, 0, 0, 0, 0, 0], "sum_hessian": [281413.0, 280713.0, 700.0, 4344.0, 276369.0, 194.0, 506.0, 2529.0, 1815.0, 379.0, 275990.0, 15.0, 179.0, 95.0, 411.0, 2334.0, 195.0, 1814.0, 1.0, 103.0, 276.0, 82661.0, 193329.0, 4.0, 11.0, 154.0, 25.0, 1.0, 94.0, 74.0, 337.0, 1805.0, 529.0, 189.0, 6.0, 256.0, 1558.0, 101.0, 2.0, 231.0, 45.0, 70001.0, 12660.0, 58949.0, 134380.0, 1.0, 3.0, 122.0, 32.0, 4.0, 21.0, 74.0, 20.0, 59.0, 15.0, 6.0, 331.0, 71.0, 1734.0, 252.0, 277.0, 170.0, 19.0, 4.0, 2.0, 225.0, 31.0, 892.0, 666.0, 6.0, 95.0, 1.0, 1.0, 4.0, 41.0, 1987.0, 68014.0, 11234.0, 1426.0, 387.0, 58562.0, 1283.0, 133097.0, 1.0, 2.0, 48.0, 74.0, 6.0, 26.0, 2.0, 2.0, 9.0, 12.0, 31.0, 43.0, 9.0, 11.0, 1.0, 5.0, 48.0, 283.0], "tree_param": {"num_deleted": "0", "num_feature": "5", "num_nodes": "101", "size_leaf_vector": "1"}}, {"base_weights": [7.961617e-06, -0.000250329, 0.0011595878, -0.00015802552, -0.0074365204, 0.03168077, 0.0010496485, -0.00027982437, 0.003701475, -0.023160946, -0.0037205638, 0.10085556, 0.011284786, 0.007207192, 0.0006661093, 3.3267093e-05, -0.0025470557, -0.0059476285, 0.005282622, -0.0049229874, -0.029687915, -0.0040909844, 0.17149161, -0.009382126, 0.2635217, -0.0019054471, 0.07414652, 0.13217331, 0.006453737, -0.000330324, 0.0031022767, 0.000114834555, -0.009909324, 0.02393032, -0.0027861437, 0.012220106, -0.019758787, 0.047483336, 0.004766297, -0.011184108, 0.22327338, -0.0033401998, -0.03401981, -0.0026008694, -0.011514813, 0.30957633, -0.0071270997, -0.016553035, 0.05808121, 0.35279322, -0.006386573, 0.018900096, -0.023025991, 0.05057575, 0.09597673, -0.009557152, 0.34119356, 0.0085687, -0.019250957, -0.00089185423, 0.008505383, 0.0040870244, -0.010499446, 0.0008451886, -3.955365e-05, -0.0045172665, 0.0135121215, 0.013183855, -0.013149261, -0.0006757916, -0.0035002131, 0.0009466578, 0.024402754, 0.0026054233, -0.008038044, -0.011830332, 0.023815976, 0.0240487, 0.0013642403, -0.00512884, 0.027658893, 0.14465469, -0.0071270997, -0.0058133285, 0.066606216, -0.011062412, -0.0015915319, -0.0010032771, 0.04945415, -0.005345325, 0.14465469, 0.14076948, -0.008987096, -0.007519745, 0.12713207, 0.0017846142, 0.08019318, -0.011931789, 0.014182485, 0.078474976, 0.005850931, 0.19272976, 0.040112544, 0.0020001098, 0.016878838, 0.09282203, -0.0070585473, -0.0019625304, 7.5933094e-05, 0.008091056, 0.00077478535, 0.006350341, 0.0010055598, -0.0012014476, -0.007841263], "categories": [], "categories_nodes": [], "categories_segments": [], "categories_sizes": [], "default_left": [0, 0, 0, 0, 0, 0, 0, 0, 0, 0, 0, 0, 0, 0, 0, 0, 0, 0, 0, 0, 0, 0, 0, 0, 0, 0, 0, 0, 0, 0, 0, 0, 0, 0, 0, 0, 0, 0, 0, 0, 0, 0, 0, 0, 0, 0, 0, 0, 0, 0, 0, 0, 0, 0, 0, 0, 0, 0, 0, 0, 0, 0, 0, 0, 0, 0, 0, 0, 0, 0, 0, 0, 0, 0, 0, 0, 0, 0, 0, 0, 0, 0, 0, 0, 0, 0, 0, 0, 0, 0, 0, 0, 0, 0, 0, 0, 0, 0, 0, 0, 0, 0, 0, 0, 0, 0, 0, 0, 0, 0, 0, 0, 0, 0, 0], "id": 3, "left_children": [1, 3, 5, 7, 9, 11, 13, 15, 17, 19, 21, 23, 25, 27, 29, 31, 33, 35, 37, 39, 41, 43, 45, 47, 49, 51, 53, 55, 57, 59, 61, 63, 65, 67, 69, 71, 73, 75, 77, 79, 81, 83, 85, 87, -1, 89, -1, -1, 91, 93, -1, 95, 97, 99, -1, -1, 101, 103, 105, 107, 109, 111, 113, -1, -1, -1, -1, -1, -1, -1, -1, -1, -1, -1, -1, -1, -1, -1, -1, -1, -1, -1, -1, -1, -1, -1, -1, -1, -1, -1, -1, -1, -1, -1, -1, -1, -1, -1, -1, -1, -1, -1, -1, -1, -1, -1, -1, -1, -1, -1, -1, -1, -1, -1, -1], "loss_changes": [0.08370808, 0.15246804, 0.17295495, 0.106684886, 0.17024101, 0.25987616, 0.12131363, 0.15617082, 0.10595834, 0.066158324, 0.1538058, 0.7556138, 0.119540446, 0.28274587, 0.117391445, 0.15677479, 0.16905718, 0.24563876, 0.12976849, 0.21395433, 0.04668194, 0.120237395, 0.14215888, 0.0835307, 0.43974304, 0.05316612, 0.1286478, 0.6280119, 0.16298655, 0.17029674, 0.18807158, 0.12782186, 0.4456703, 0.3260816, 0.12533183, 0.26478055, 0.11148356, 0.20278361, 0.09689638, 0.09019838, 0.26728863, 0.2175424, 0.028660417, 0.28162447, 0.0, 0.17812186, 0.0, 0.0, 0.41222307, 0.35928953, 0.0, 0.19466266, 0.07251851, 0.15225579, 0.0, 0.0, 0.4141221, 0.25067788, 0.32781228, 0.20876764, 0.22423315, 0.16431373, 0.096177526, 0.0, 0.0, 0.0, 0.0, 0.0, 0.0, 0.0, 0.0, 0.0, 0.0, 0.0, 0.0, 0.0, 0.0, 0.0, 0.0, 0.0, 0.0, 0.0, 0.0, 0.0, 0.0, 0.0, 0.0, 0.0, 0.0, 0.0, 0.0, 0.0, 0.0, 0.0, 0.0, 0.0, 0.0, 0.0, 0.0, 0.0, 0.0, 0.0, 0.0, 0.0, 0.0, 0.0, 0.0, 0.0, 0.0, 0.0, 0.0, 0.0, 0.0, 0.0, 0.0], "parents": [2147483647, 0, 0, 1, 1, 2, 2, 3, 3, 4, 4, 5, 5, 6, 6, 7, 7, 8, 8, 9, 9, 10, 10, 11, 11, 12, 12, 13, 13, 14, 14, 15, 15, 16, 16, 17, 17, 18, 18, 19, 19, 20, 20, 21, 21, 22, 22, 23, 23, 24, 24, 25, 25, 26, 26, 27, 27, 28, 28, 29, 29, 30, 30, 31, 31, 32, 32, 33, 33, 34, 34, 35, 35, 36, 36, 37, 37, 38, 38, 39, 39, 40, 40, 41, 41, 42, 42, 43, 43, 45, 45, 48, 48, 49, 49, 51, 51, 52, 52, 53, 53, 56, 56, 57, 57, 58, 58, 59, 59, 60, 60, 61, 61, 62, 62], "right_children": [2, 4, 6, 8, 10, 12, 14, 16, 18, 20, 22, 24, 26, 28, 30, 32, 34, 36, 38, 40, 42, 44, 46, 48, 50, 52, 54, 56, 58, 60, 62, 64, 66, 68, 70, 72, 74, 76, 78, 80, 82, 84, 86, 88, -1, 90, -1, -1, 92, 94, -1, 96, 98, 100, -1, -1, 102, 104, 106, 108, 110, 112, 114, -1, -1, -1, -1, -1, -1, -1, -1, -1, -1, -1, -1, -1, -1, -1, -1, -1, -1, -1, -1, -1, -1, -1, -1, -1, -1, -1, -1, -1, -1, -1, -1, -1, -1, -1, -1, -1, -1, -1, -1, -1, -1, -1, -1, -1, -1, -1, -1, -1, -1, -1, -1], "split_conditions": [1.48, 1.42, 6.0, 1.29, 48.0, 1.8, 1.55, 0.9, 964.94, 961.57, 39.3, 21.5, 24.6, 8.4, 1006.71, 35.3, 831.37, 50.0, 967.94, 960.66, 19.3, 1014.74, 52.0, 1009.47, 26.3, 22.3, 6.57, 982.2, 95.0, 95.0, 98.0, 46.0, 1014.74, 25.5, 1014.74, 951.71, 906.54, 39.0, 9.1, 45.0, 20.7, 19.2, 34.3, 1014.5, -0.011514813, 51.0, -0.0071270997, -0.016553035, 1009.81, 831.37, -0.006386573, 22.2, 1011.36, 2.06, 0.09597673, -0.009557152, 1000.16, 93.0, 9.7, 1.74, 1.8, 38.0, 14.4, 0.0008451886, -3.955365e-05, -0.0045172665, 0.0135121215, 0.013183855, -0.013149261, -0.0006757916, -0.0035002131, 0.0009466578, 0.024402754, 0.0026054233, -0.008038044, -0.011830332, 0.023815976, 0.0240487, 0.0013642403, -0.00512884, 0.027658893, 0.14465469, -0.0071270997, -0.0058133285, 0.066606216, -0.011062412, -0.0015915319, -0.0010032771, 0.04945415, -0.005345325, 0.14465469, 0.14076948, -0.008987096, -0.007519745, 0.12713207, 0.0017846142, 0.08019318, -0.011931789, 0.014182485, 0.078474976, 0.005850931, 0.19272976, 0.040112544, 0.0020001098, 0.016878838, 0.09282203, -0.0070585473, -0.0019625304, 7.5933094e-05, 0.008091056, 0.00077478535, 0.006350341, 0.0010055598, -0.0012014476, -0.007841263], "split_indices": [2, 2, 1, 2, 1, 2, 2, 2, 3, 3, 0, 0, 0, 0, 3, 0, 3, 1, 3, 3, 0, 3, 1, 3, 0, 0, 2, 3, 1, 1, 1, 1, 3, 0, 3, 3, 3, 1, 0, 1, 0, 0, 0, 3, 0, 1, 0, 0, 3, 3, 0, 0, 3, 2, 0, 0, 3, 1, 0, 2, 2, 1, 0, 0, 0, 0, 0, 0, 0, 0, 0, 0, 0, 0, 0, 0, 0, 0, 0, 0, 0, 0, 0, 0, 0, 0, 0, 0, 0, 0, 0, 0, 0, 0, 0, 0, 0, 0, 0, 0, 0, 0, 0, 0, 0, 0, 0, 0, 0, 0, 0, 0, 0, 0, 0], "split_type": [0, 0, 0, 0, 0, 0, 0, 0, 0, 0, 0, 0, 0, 0, 0, 0, 0, 0, 0, 0, 0, 0, 0, 0, 0, 0, 0, 0, 0, 0, 0, 0, 0, 0, 0, 0, 0, 0, 0, 0, 0, 0, 0, 0, 0, 0, 0, 0, 0, 0, 0, 0, 0, 0, 0, 0, 0, 0, 0, 0, 0, 0, 0, 0, 0, 0, 0, 0, 0, 0, 0, 0, 0, 0, 0, 0, 0, 0, 0, 0, 0, 0, 0, 0, 0, 0, 0, 0, 0, 0, 0, 0, 0, 0, 0, 0, 0, 0, 0, 0, 0, 0, 0, 0, 0, 0, 0, 0, 0, 0, 0, 0, 0, 0, 0], "sum_hessian": [281413.0, 229860.0, 51553.0, 226946.0, 2914.0, 184.0, 51369.0, 220004.0, 6942.0, 556.0, 2358.0, 41.0, 143.0, 3011.0, 48358.0, 193310.0, 26694.0, 977.0, 5965.0, 147.0, 409.0, 2354.0, 4.0, 25.0, 16.0, 119.0, 24.0, 17.0, 2994.0, 34321.0, 14037.0, 191738.0, 1572.0, 238.0, 26456.0, 422.0, 555.0, 71.0, 5894.0, 144.0, 3.0, 58.0, 351.0, 2257.0, 97.0, 2.0, 2.0, 15.0, 10.0, 12.0, 4.0, 60.0, 59.0, 23.0, 1.0, 10.0, 7.0, 2767.0, 227.0, 32271.0, 2050.0, 13090.0, 947.0, 16037.0, 175701.0, 1438.0, 134.0, 184.0, 54.0, 24958.0, 1498.0, 374.0, 48.0, 110.0, 445.0, 19.0, 52.0, 16.0, 5878.0, 137.0, 7.0, 1.0, 2.0, 55.0, 3.0, 319.0, 32.0, 2248.0, 9.0, 1.0, 1.0, 1.0, 9.0, 2.0, 10.0, 58.0, 2.0, 48.0, 11.0, 2.0, 21.0, 2.0, 5.0, 2662.0, 105.0, 2.0, 225.0, 5437.0, 26834.0, 497.0, 1553.0, 539.0, 12551.0, 670.0, 277.0], "tree_param": {"num_deleted": "0", "num_feature": "5", "num_nodes": "115", "size_leaf_vector": "1"}}, {"base_weights": [1.0074576e-05, 0.0049071047, -3.7861308e-05, -0.0011910179, 0.01267304, -0.010784448, -1.0955275e-05, -0.0153920315, 0.005601922, 0.012053297, 0.11336174, -0.02359394, 0.0014452764, 0.022163175, -3.2832428e-05, 0.073184446, -0.016812563, 0.037637863, 0.00071368413, 0.0072080675, 0.03998898, 0.009008065, -0.03432666, 0.041440617, -0.009159302, 0.07039498, -0.017012317, -0.015219615, -1.4984442e-05, -0.0151968645, 0.14101037, -0.018600505, 0.062410012, 0.05093525, -0.011471958, -0.0282589, 0.003500676, 0.20629676, 0.0064202608, -0.012496899, 0.07695019, 0.04197914, -0.0160723, -0.04161035, 0.021930808, 0.007919874, 0.083863385, -0.011388329, 0.00012666581, 0.15841301, 0.036361557, 0.29725912, -0.023184331, -0.0044654906, -0.035727803, 0.019415308, -3.8899325e-05, -0.011046429, -0.0045029703, -0.0074350187, 0.09095607, 0.011733633, 0.056540158, -0.012379558, -0.00092853303, 0.14375487, 0.00070086203, 0.14125936, -0.0116542, 0.0043724566, -0.0022579902, -0.012527557, 0.016260948, 0.0490603, 0.01032107, 0.044398412, -0.0008301504, 0.019940356, -0.010891659, -0.011285247, -0.013676335, 0.14384387, -0.0031141534, -0.0036228811, 0.03997264, -0.010301529, 0.04335754, 0.04558111, -0.0036056386, 0.077585936, 0.019707251, 0.002123248, 0.08973953, 0.13976356, -0.005996962, -0.01119371, 0.013689186, -0.004913498, 0.031909905, -0.011473767, -0.008804837, 0.0547224, 0.0044855387, -0.003819501, -2.9712913e-07], "categories": [], "categories_nodes": [], "categories_segments": [], "categories_sizes": [], "default_left": [0, 0, 0, 0, 0, 0, 0, 0, 0, 0, 0, 0, 0, 0, 0, 0, 0, 0, 0, 0, 0, 0, 0, 0, 0, 0, 0, 0, 0, 0, 0, 0, 0, 0, 0, 0, 0, 0, 0, 0, 0, 0, 0, 0, 0, 0, 0, 0, 0, 0, 0, 0, 0, 0, 0, 0, 0, 0, 0, 0, 0, 0, 0, 0, 0, 0, 0, 0, 0, 0, 0, 0, 0, 0, 0, 0, 0, 0, 0, 0, 0, 0, 0, 0, 0, 0, 0, 0, 0, 0, 0, 0, 0, 0, 0, 0, 0, 0, 0, 0, 0, 0, 0, 0, 0], "id": 4, "left_children": [1, 3, 5, 7, 9, 11, 13, 15, 17, 19, -1, 21, 23, 25, 27, 29, 31, 33, 35, 37, 39, 41, 43, 45, 47, 49, 51, 53, 55, -1, -1, 57, 59, 61, -1, 63, 65, 67, 69, 71, 73, 75, 77, 79, 81, 83, 85, -1, 87, 89, 91, 93, 95, 97, 99, 101, 103, -1, -1, -1, -1, -1, -1, -1, -1, -1, -1, -1, -1, -1, -1, -1, -1, -1, -1, -1, -1, -1, -1, -1, -1, -1, -1, -1, -1, -1, -1, -1, -1, -1, -1, -1, -1, -1, -1, -1, -1, -1, -1, -1, -1, -1, -1, -1, -1], "loss_changes": [0.066060275, 0.12920669, 0.08058167, 0.14758371, 0.26704112, 0.10906705, 0.13485655, 0.063514166, 0.1620534, 0.16200216, 0.0, 0.119278, 0.1517953, 0.51892185, 0.07527647, 0.4169796, 0.070283756, 0.14017738, 0.072689906, 0.15912631, 0.3443313, 0.07096346, 0.105811596, 0.10598901, 0.075693876, 0.36269313, 0.30172426, 0.07173897, 0.12889831, 0.0, 0.0, 0.030720055, 0.23844972, 0.18287766, 0.0, 0.025727995, 0.45364675, 0.27772072, 0.11611559, 0.14669308, 0.37749565, 0.17593029, 0.084245786, 0.0018901527, 0.44849735, 0.10936543, 0.24158363, 0.0, 0.39824453, 0.29891837, 0.69043106, 0.16979587, 0.14753559, 0.28561118, 0.0006763637, 0.2453569, 0.13330975, 0.0, 0.0, 0.0, 0.0, 0.0, 0.0, 0.0, 0.0, 0.0, 0.0, 0.0, 0.0, 0.0, 0.0, 0.0, 0.0, 0.0, 0.0, 0.0, 0.0, 0.0, 0.0, 0.0, 0.0, 0.0, 0.0, 0.0, 0.0, 0.0, 0.0, 0.0, 0.0, 0.0, 0.0, 0.0, 0.0, 0.0, 0.0, 0.0, 0.0, 0.0, 0.0, 0.0, 0.0, 0.0, 0.0, 0.0, 0.0], "parents": [2147483647, 0, 0, 1, 1, 2, 2, 3, 3, 4, 4, 5, 5, 6, 6, 7, 7, 8, 8, 9, 9, 11, 11, 12, 12, 13, 13, 14, 14, 15, 15, 16, 16, 17, 17, 18, 18, 19, 19, 20, 20, 21, 21, 22, 22, 23, 23, 24, 24, 25, 25, 26, 26, 27, 27, 28, 28, 31, 31, 32, 32, 33, 33, 35, 35, 36, 36, 37, 37, 38, 38, 39, 39, 40, 40, 41, 41, 42, 42, 43, 43, 44, 44, 45, 45, 46, 46, 48, 48, 49, 49, 50, 50, 51, 51, 52, 52, 53, 53, 54, 54, 55, 55, 56, 56], "right_children": [2, 4, 6, 8, 10, 12, 14, 16, 18, 20, -1, 22, 24, 26, 28, 30, 32, 34, 36, 38, 40, 42, 44, 46, 48, 50, 52, 54, 56, -1, -1, 58, 60, 62, -1, 64, 66, 68, 70, 72, 74, 76, 78, 80, 82, 84, 86, -1, 88, 90, 92, 94, 96, 98, 100, 102, 104, -1, -1, -1, -1, -1, -1, -1, -1, -1, -1, -1, -1, -1, -1, -1, -1, -1, -1, -1, -1, -1, -1, -1, -1, -1, -1, -1, -1, -1, -1, -1, -1, -1, -1, -1, -1, -1, -1, -1, -1, -1, -1, -1, -1, -1, -1, -1, -1], "split_conditions": [17.0, 1.1, 20.0, 10.0, 1.0, 28.5, 21.0, 11.9, 11.0, 15.0, 0.11336174, 0.13, 30.0, 26.0, 22.0, 11.7, 1.09, 0.9, 22.5, 1.16, 1.93, 886.31, 3.28, 29.2, 32.2, 857.97, 814.5, 29.2, 23.0, -0.0151968645, 0.14101037, 16.3, 28.5, 0.77, -0.011471958, 15.0, 22.7, 32.8, 11.0, 950.47, 28.9, 18.0, 23.5, 1.09, 3.35, 959.7, 0.39, -0.011388329, 32.8, 18.9, 25.5, 26.5, 39.3, 28.2, 35.3, 15.2, 25.0, -0.011046429, -0.0045029703, -0.0074350187, 0.09095607, 0.011733633, 0.056540158, -0.012379558, -0.00092853303, 0.14375487, 0.00070086203, 0.14125936, -0.0116542, 0.0043724566, -0.0022579902, -0.012527557, 0.016260948, 0.0490603, 0.01032107, 0.044398412, -0.0008301504, 0.019940356, -0.010891659, -0.011285247, -0.013676335, 0.14384387, -0.0031141534, -0.0036228811, 0.03997264, -0.010301529, 0.04335754, 0.04558111, -0.0036056386, 0.077585936, 0.019707251, 0.002123248, 0.08973953, 0.13976356, -0.005996962, -0.01119371, 0.013689186, -0.004913498, 0.031909905, -0.011473767, -0.008804837, 0.0547224, 0.0044855387, -0.003819501, -2.9712913e-07], "split_indices": [1, 2, 1, 1, 4, 0, 1, 0, 1, 1, 0, 2, 0, 0, 1, 0, 2, 2, 0, 2, 2, 3, 2, 0, 0, 3, 3, 0, 1, 0, 0, 0, 0, 2, 0, 1, 0, 0, 1, 3, 0, 1, 0, 2, 2, 3, 2, 0, 0, 0, 0, 0, 0, 0, 0, 0, 1, 0, 0, 0, 0, 0, 0, 0, 0, 0, 0, 0, 0, 0, 0, 0, 0, 0, 0, 0, 0, 0, 0, 0, 0, 0, 0, 0, 0, 0, 0, 0, 0, 0, 0, 0, 0, 0, 0, 0, 0, 0, 0, 0, 0, 0, 0, 0, 0], "split_type": [0, 0, 0, 0, 0, 0, 0, 0, 0, 0, 0, 0, 0, 0, 0, 0, 0, 0, 0, 0, 0, 0, 0, 0, 0, 0, 0, 0, 0, 0, 0, 0, 0, 0, 0, 0, 0, 0, 0, 0, 0, 0, 0, 0, 0, 0, 0, 0, 0, 0, 0, 0, 0, 0, 0, 0, 0, 0, 0, 0, 0, 0, 0, 0, 0, 0, 0, 0, 0, 0, 0, 0, 0, 0, 0, 0, 0, 0, 0, 0, 0, 0, 0, 0, 0, 0, 0, 0, 0, 0, 0, 0, 0, 0, 0, 0, 0, 0, 0, 0, 0, 0, 0, 0, 0], "sum_hessian": [281413.0, 2727.0, 278686.0, 1528.0, 1199.0, 695.0, 277991.0, 494.0, 1034.0, 1198.0, 1.0, 339.0, 356.0, 273.0, 277718.0, 7.0, 487.0, 136.0, 898.0, 1022.0, 176.0, 84.0, 255.0, 74.0, 282.0, 122.0, 151.0, 325.0, 277393.0, 6.0, 1.0, 477.0, 10.0, 116.0, 20.0, 78.0, 820.0, 3.0, 1019.0, 73.0, 103.0, 36.0, 48.0, 226.0, 29.0, 42.0, 32.0, 68.0, 214.0, 33.0, 89.0, 2.0, 149.0, 214.0, 111.0, 340.0, 277053.0, 77.0, 400.0, 8.0, 2.0, 108.0, 8.0, 51.0, 27.0, 1.0, 819.0, 1.0, 2.0, 643.0, 376.0, 51.0, 22.0, 33.0, 70.0, 10.0, 26.0, 9.0, 39.0, 118.0, 108.0, 1.0, 28.0, 37.0, 5.0, 11.0, 21.0, 15.0, 199.0, 15.0, 18.0, 81.0, 8.0, 1.0, 1.0, 124.0, 25.0, 194.0, 20.0, 76.0, 35.0, 8.0, 332.0, 824.0, 276229.0], "tree_param": {"num_deleted": "0", "num_feature": "5", "num_nodes": "105", "size_leaf_vector": "1"}}, {"base_weights": [1.1835237e-05, -0.0020540345, 0.00011043885, 0.0020425098, -0.0050014467, 8.543378e-05, 0.009847284, 0.011811592, 0.00087875844, -0.023178278, -0.004372835, 0.0016441898, -1.8574245e-05, 0.0236296, 0.0019267166, 0.01022822, 0.30818713, 0.0015928269, -0.028721783, 0.0013186383, -0.032765444, 0.06180871, -0.004927671, -0.001262, 0.005180221, -0.0009072243, 0.00023619478, 0.28833008, 0.018175624, -0.036605656, 0.009355716, 0.008643681, 0.3062966, 0.14434211, -0.0056578973, 0.0012471969, 0.14827792, 0.043679714, -0.011326924, -0.02611786, 0.368704, -0.012686991, -0.011535644, 0.123583846, -0.004085892, -0.0011244692, -0.007023355, 0.20576525, -0.0013519137, 0.0054871095, -0.025112454, -0.0005917139, -0.0077628638, 0.001444963, -0.0002548067, -0.006265267, 0.37085474, 0.01154686, 0.21476658, -0.033442482, -0.015767032, 0.06819959, 0.0052351113, -0.0031494775, 0.006909762, -0.0060832635, 0.14391674, -0.0009253218, 0.0016063161, 0.14249082, -0.0100807585, -0.009781543, 0.06704158, -0.012289107, 0.032095212, -0.0070976736, 0.19144967, -0.011502204, 0.029378118, 0.004575998, 0.08172199, 0.04975644, -0.010982893, -0.0013502794, 0.006722533, -0.004008229, -0.00069251726, -0.013553689, 0.1437897, -0.012100478, -0.00031970732, 0.0015463475, 0.0108632, -0.011429825, 0.0025489265, -0.00020922396, 0.008026945, -0.0028709325, 0.0059281136, 0.00034812995, 0.004096207, -0.00019213582, 0.00046796256, -0.0056923865, 0.15213682, -0.004052294, 0.008954734, 0.11099416, -0.009882746, -0.010953791, -0.005718511, 0.009169843, 0.14006534, -0.0012543029, 0.009126792], "categories": [], "categories_nodes": [], "categories_segments": [], "categories_sizes": [], "default_left": [0, 0, 0, 0, 0, 0, 0, 0, 0, 0, 0, 0, 0, 0, 0, 0, 0, 0, 0, 0, 0, 0, 0, 0, 0, 0, 0, 0, 0, 0, 0, 0, 0, 0, 0, 0, 0, 0, 0, 0, 0, 0, 0, 0, 0, 0, 0, 0, 0, 0, 0, 0, 0, 0, 0, 0, 0, 0, 0, 0, 0, 0, 0, 0, 0, 0, 0, 0, 0, 0, 0, 0, 0, 0, 0, 0, 0, 0, 0, 0, 0, 0, 0, 0, 0, 0, 0, 0, 0, 0, 0, 0, 0, 0, 0, 0, 0, 0, 0, 0, 0, 0, 0, 0, 0, 0, 0, 0, 0, 0, 0, 0, 0, 0, 0], "id": 5, "left_children": [1, 3, 5, 7, 9, 11, 13, 15, 17, 19, 21, 23, 25, 27, 29, 31, 33, 35, 37, 39, 41, 43, 45, 47, 49, 51, 53, 55, 57, 59, 61, 63, 65, -1, -1, 67, 69, 71, -1, 73, 75, 77, -1, 79, 81, 83, 85, 87, 89, 91, 93, 95, 97, 99, 101, -1, 103, 105, 107, 109, -1, 111, 113, -1, -1, -1, -1, -1, -1, -1, -1, -1, -1, -1, -1, -1, -1, -1, -1, -1, -1, -1, -1, -1, -1, -1, -1, -1, -1, -1, -1, -1, -1, -1, -1, -1, -1, -1, -1, -1, -1, -1, -1, -1, -1, -1, -1, -1, -1, -1, -1, -1, -1, -1, -1], "loss_changes": [0.057324886, 0.15480153, 0.06539413, 0.060983136, 0.08509214, 0.04343411, 0.075059146, 0.26480237, 0.10139676, 0.058522344, 0.26498145, 0.17221808, 0.05686093, 0.3571206, 0.12572303, 0.26428843, 0.17876554, 0.23723738, 0.07556483, 0.7252932, 0.01995042, 0.24474382, 0.056971848, 0.17151389, 0.07041919, 0.12103833, 0.1158482, 0.13533404, 0.3193994, 0.0018247515, 0.08887279, 0.15641098, 0.1796368, 0.0, 0.0, 0.08315253, 0.66956675, 0.18558683, 0.0, 0.13677499, 0.5437319, 0.120098576, 0.0, 0.49562848, 0.17188515, 0.20200358, 0.13768904, 0.29622102, 0.10256436, 0.0763042, 0.033495966, 0.15466738, 0.12262936, 0.19585326, 0.09714297, 0.0, 0.22210753, 0.11045611, 0.31977123, 0.0020413846, 0.0, 0.34582236, 0.081950426, 0.0, 0.0, 0.0, 0.0, 0.0, 0.0, 0.0, 0.0, 0.0, 0.0, 0.0, 0.0, 0.0, 0.0, 0.0, 0.0, 0.0, 0.0, 0.0, 0.0, 0.0, 0.0, 0.0, 0.0, 0.0, 0.0, 0.0, 0.0, 0.0, 0.0, 0.0, 0.0, 0.0, 0.0, 0.0, 0.0, 0.0, 0.0, 0.0, 0.0, 0.0, 0.0, 0.0, 0.0, 0.0, 0.0, 0.0, 0.0, 0.0, 0.0, 0.0, 0.0], "parents": [2147483647, 0, 0, 1, 1, 2, 2, 3, 3, 4, 4, 5, 5, 6, 6, 7, 7, 8, 8, 9, 9, 10, 10, 11, 11, 12, 12, 13, 13, 14, 14, 15, 15, 16, 16, 17, 17, 18, 18, 19, 19, 20, 20, 21, 21, 22, 22, 23, 23, 24, 24, 25, 25, 26, 26, 27, 27, 28, 28, 29, 29, 30, 30, 31, 31, 32, 32, 35, 35, 36, 36, 37, 37, 39, 39, 40, 40, 41, 41, 43, 43, 44, 44, 45, 45, 46, 46, 47, 47, 48, 48, 49, 49, 50, 50, 51, 51, 52, 52, 53, 53, 54, 54, 56, 56, 57, 57, 58, 58, 59, 59, 61, 61, 62, 62], "right_children": [2, 4, 6, 8, 10, 12, 14, 16, 18, 20, 22, 24, 26, 28, 30, 32, 34, 36, 38, 40, 42, 44, 46, 48, 50, 52, 54, 56, 58, 60, 62, 64, 66, -1, -1, 68, 70, 72, -1, 74, 76, 78, -1, 80, 82, 84, 86, 88, 90, 92, 94, 96, 98, 100, 102, -1, 104, 106, 108, 110, -1, 112, 114, -1, -1, -1, -1, -1, -1, -1, -1, -1, -1, -1, -1, -1, -1, -1, -1, -1, -1, -1, -1, -1, -1, -1, -1, -1, -1, -1, -1, -1, -1, -1, -1, -1, -1, -1, -1, -1, -1, -1, -1, -1, -1, -1, -1, -1, -1, -1, -1, -1, -1, -1, -1], "split_conditions": [10.6, 8.8, 6.57, 74.0, 60.0, 12.2, 15.5, 1018.13, 2.51, 46.0, 62.0, 0.06, 14.6, 35.0, 886.31, 5.6, 8.4, 2.45, 915.74, 44.0, 866.44, 10.0, 976.0, 27.0, 4.25, 1012.42, 17.1, 14.6, 15.4, 58.0, 943.31, 0.06, 6.1, 0.14434211, -0.0056578973, 96.0, 935.64, 3.28, -0.011326924, 42.0, 9.5, 0.71, -0.011535644, 0.58, 857.97, 966.89, 1002.39, 11.8, 55.0, 3.54, 1005.38, 1011.97, 2.25, 1015.82, 1.74, -0.006265267, 25.0, 88.0, 85.0, 44.0, -0.015767032, 95.0, 23.8, -0.0031494775, 0.006909762, -0.0060832635, 0.14391674, -0.0009253218, 0.0016063161, 0.14249082, -0.0100807585, -0.009781543, 0.06704158, -0.012289107, 0.032095212, -0.0070976736, 0.19144967, -0.011502204, 0.029378118, 0.004575998, 0.08172199, 0.04975644, -0.010982893, -0.0013502794, 0.006722533, -0.004008229, -0.00069251726, -0.013553689, 0.1437897, -0.012100478, -0.00031970732, 0.0015463475, 0.0108632, -0.011429825, 0.0025489265, -0.00020922396, 0.008026945, -0.0028709325, 0.0059281136, 0.00034812995, 0.004096207, -0.00019213582, 0.00046796256, -0.0056923865, 0.15213682, -0.004052294, 0.008954734, 0.11099416, -0.009882746, -0.010953791, -0.005718511, 0.009169843, 0.14006534, -0.0012543029, 0.009126792], "split_indices": [0, 0, 2, 1, 1, 0, 0, 3, 2, 1, 1, 2, 0, 1, 3, 2, 0, 2, 3, 1, 3, 0, 3, 1, 2, 3, 0, 0, 0, 1, 3, 2, 0, 0, 0, 1, 3, 2, 0, 1, 0, 2, 0, 2, 3, 3, 3, 0, 1, 2, 3, 3, 2, 3, 2, 0, 1, 1, 1, 1, 0, 1, 0, 0, 0, 0, 0, 0, 0, 0, 0, 0, 0, 0, 0, 0, 0, 0, 0, 0, 0, 0, 0, 0, 0, 0, 0, 0, 0, 0, 0, 0, 0, 0, 0, 0, 0, 0, 0, 0, 0, 0, 0, 0, 0, 0, 0, 0, 0, 0, 0, 0, 0, 0, 0], "split_type": [0, 0, 0, 0, 0, 0, 0, 0, 0, 0, 0, 0, 0, 0, 0, 0, 0, 0, 0, 0, 0, 0, 0, 0, 0, 0, 0, 0, 0, 0, 0, 0, 0, 0, 0, 0, 0, 0, 0, 0, 0, 0, 0, 0, 0, 0, 0, 0, 0, 0, 0, 0, 0, 0, 0, 0, 0, 0, 0, 0, 0, 0, 0, 0, 0, 0, 0, 0, 0, 0, 0, 0, 0, 0, 0, 0, 0, 0, 0, 0, 0, 0, 0, 0, 0, 0, 0, 0, 0, 0, 0, 0, 0, 0, 0, 0, 0, 0, 0, 0, 0, 0, 0, 0, 0, 0, 0, 0, 0, 0, 0, 0, 0, 0, 0], "sum_hessian": [281413.0, 12819.0, 268594.0, 5364.0, 7455.0, 267907.0, 687.0, 570.0, 4794.0, 248.0, 7207.0, 16757.0, 251150.0, 250.0, 437.0, 568.0, 2.0, 4682.0, 112.0, 70.0, 178.0, 59.0, 7148.0, 9198.0, 7559.0, 55959.0, 195191.0, 4.0, 246.0, 70.0, 367.0, 566.0, 2.0, 1.0, 1.0, 4672.0, 10.0, 12.0, 100.0, 66.0, 4.0, 40.0, 138.0, 30.0, 29.0, 2540.0, 4608.0, 3.0, 9195.0, 7484.0, 75.0, 53498.0, 2461.0, 56383.0, 138808.0, 1.0, 3.0, 239.0, 7.0, 61.0, 9.0, 23.0, 344.0, 243.0, 323.0, 1.0, 1.0, 2274.0, 2398.0, 3.0, 7.0, 9.0, 3.0, 60.0, 6.0, 2.0, 2.0, 33.0, 7.0, 18.0, 12.0, 4.0, 25.0, 2222.0, 318.0, 1965.0, 2643.0, 2.0, 1.0, 66.0, 9129.0, 7405.0, 79.0, 54.0, 21.0, 53293.0, 205.0, 2310.0, 151.0, 55100.0, 1283.0, 114480.0, 24328.0, 1.0, 2.0, 101.0, 138.0, 4.0, 3.0, 49.0, 12.0, 22.0, 1.0, 251.0, 93.0], "tree_param": {"num_deleted": "0", "num_feature": "5", "num_nodes": "115", "size_leaf_vector": "1"}}, {"base_weights": [1.2916185e-05, -0.0006245249, 0.00022012297, 0.00079701387, -0.001801502, 0.0046146093, 4.3711084e-06, 0.00020146208, 0.008211227, -0.008570841, -0.0007604237, 0.0032012742, 0.035119317, 6.0160695e-05, -0.005846827, -0.0019935023, 0.0015901092, 0.03149095, 0.00073748676, 0.016731951, -0.0104651, 0.0047171284, -0.0018451212, 0.13614382, 0.0028923873, 0.16909227, 0.018666845, 0.00024238326, -0.0018352454, 0.0005783051, -0.015032153, 0.0026396601, -0.004418029, 0.05491614, 0.0014028997, 0.43207693, 0.027142726, -0.003961196, 0.028889367, 0.014106697, 0.14033563, -0.01683339, -0.005629973, -0.0011836326, 0.010431573, -0.0012517368, -0.015361732, 0.36407015, 0.06526741, -0.00316211, 0.0093610715, -0.011245044, 0.24689135, 0.00436391, 0.11449508, 0.00012189367, 0.0063911215, -0.0046767383, 0.00093089713, 0.031389654, -0.008070538, -0.017865809, 0.046361428, -0.00023864543, 0.005509478, -0.003910322, -0.0007045278, 0.004878669, 0.10689067, 0.003309176, 0.0001389922, -0.005737892, 0.15784286, 0.020420816, 0.005330882, -0.0056043947, 0.0014653283, 0.045352474, 0.002342568, -0.0019533653, 0.014338624, -0.0043022186, -0.010770023, 0.002278781, -0.0030047903, 0.0026286403, -0.0023452658, 0.030808484, 0.0028436007, -0.00049426337, 0.007580266, 0.1058027, -0.00508664, -0.00560518, 0.13932891, -0.013260164, 0.07308085, -0.0012085414, 0.008902409, -0.0074463636, 0.0031665668, 0.11710673, 0.04331205, -0.0022916368, 0.017665934, 0.0766443, 0.012823476, -0.0022239536, 5.3666325e-05, -0.0041411775, 0.002888145, 0.009546183, -0.0015641954, 0.000112209855, 0.014567426, 0.005233687, 0.09868998, -0.0029636228, 0.029058356, -0.0074450946, -0.0016870108, 0.005732104, 0.14595173], "categories": [], "categories_nodes": [], "categories_segments": [], "categories_sizes": [], "default_left": [0, 0, 0, 0, 0, 0, 0, 0, 0, 0, 0, 0, 0, 0, 0, 0, 0, 0, 0, 0, 0, 0, 0, 0, 0, 0, 0, 0, 0, 0, 0, 0, 0, 0, 0, 0, 0, 0, 0, 0, 0, 0, 0, 0, 0, 0, 0, 0, 0, 0, 0, 0, 0, 0, 0, 0, 0, 0, 0, 0, 0, 0, 0, 0, 0, 0, 0, 0, 0, 0, 0, 0, 0, 0, 0, 0, 0, 0, 0, 0, 0, 0, 0, 0, 0, 0, 0, 0, 0, 0, 0, 0, 0, 0, 0, 0, 0, 0, 0, 0, 0, 0, 0, 0, 0, 0, 0, 0, 0, 0, 0, 0, 0, 0, 0, 0, 0, 0, 0, 0, 0, 0, 0], "id": 6, "left_children": [1, 3, 5, 7, 9, 11, 13, 15, 17, 19, 21, 23, 25, 27, 29, 31, 33, 35, 37, 39, 41, 43, 45, 47, 49, 51, 53, 55, 57, 59, 61, 63, 65, 67, 69, 71, 73, 75, 77, 79, -1, 81, 83, 85, 87, 89, 91, 93, 95, 97, 99, -1, 101, 103, 105, 107, 109, 111, 113, 115, 117, 119, 121, -1, -1, -1, -1, -1, -1, -1, -1, -1, -1, -1, -1, -1, -1, -1, -1, -1, -1, -1, -1, -1, -1, -1, -1, -1, -1, -1, -1, -1, -1, -1, -1, -1, -1, -1, -1, -1, -1, -1, -1, -1, -1, -1, -1, -1, -1, -1, -1, -1, -1, -1, -1, -1, -1, -1, -1, -1, -1, -1, -1], "loss_changes": [0.037169892, 0.11550683, 0.20136046, 0.13807252, 0.26615307, 0.42839152, 0.06608437, 0.08823147, 0.40449566, 0.24145496, 0.19449733, 0.38971603, 0.9666853, 0.06926065, 0.11284907, 0.12601475, 0.17692399, 0.9724111, 0.2330538, 0.40903077, 0.14413255, 0.18246898, 0.21913418, 0.33163932, 0.37127116, 0.78068197, 0.53815603, 0.13553418, 0.13824558, 0.30031264, 0.13774131, 0.20820218, 0.13128778, 0.71649027, 0.15983045, 0.2647202, 0.21361226, 0.19670627, 0.6484448, 0.24341805, 0.0, 0.09553683, 0.15461142, 0.1757717, 0.24071366, 0.2747991, 0.67992985, 0.20074242, 0.36216363, 0.13943201, 0.18733451, 0.0, 0.45841098, 0.22491504, 0.50498325, 0.07705749, 0.22990958, 0.17028534, 0.23637138, 1.0191684, 0.16792634, 0.06394024, 0.41055995, 0.0, 0.0, 0.0, 0.0, 0.0, 0.0, 0.0, 0.0, 0.0, 0.0, 0.0, 0.0, 0.0, 0.0, 0.0, 0.0, 0.0, 0.0, 0.0, 0.0, 0.0, 0.0, 0.0, 0.0, 0.0, 0.0, 0.0, 0.0, 0.0, 0.0, 0.0, 0.0, 0.0, 0.0, 0.0, 0.0, 0.0, 0.0, 0.0, 0.0, 0.0, 0.0, 0.0, 0.0, 0.0, 0.0, 0.0, 0.0, 0.0, 0.0, 0.0, 0.0, 0.0, 0.0, 0.0, 0.0, 0.0, 0.0, 0.0, 0.0], "parents": [2147483647, 0, 0, 1, 1, 2, 2, 3, 3, 4, 4, 5, 5, 6, 6, 7, 7, 8, 8, 9, 9, 10, 10, 11, 11, 12, 12, 13, 13, 14, 14, 15, 15, 16, 16, 17, 17, 18, 18, 19, 19, 20, 20, 21, 21, 22, 22, 23, 23, 24, 24, 25, 25, 26, 26, 27, 27, 28, 28, 29, 29, 30, 30, 31, 31, 32, 32, 33, 33, 34, 34, 35, 35, 36, 36, 37, 37, 38, 38, 39, 39, 41, 41, 42, 42, 43, 43, 44, 44, 45, 45, 46, 46, 47, 47, 48, 48, 49, 49, 50, 50, 52, 52, 53, 53, 54, 54, 55, 55, 56, 56, 57, 57, 58, 58, 59, 59, 60, 60, 61, 61, 62, 62], "right_children": [2, 4, 6, 8, 10, 12, 14, 16, 18, 20, 22, 24, 26, 28, 30, 32, 34, 36, 38, 40, 42, 44, 46, 48, 50, 52, 54, 56, 58, 60, 62, 64, 66, 68, 70, 72, 74, 76, 78, 80, -1, 82, 84, 86, 88, 90, 92, 94, 96, 98, 100, -1, 102, 104, 106, 108, 110, 112, 114, 116, 118, 120, 122, -1, -1, -1, -1, -1, -1, -1, -1, -1, -1, -1, -1, -1, -1, -1, -1, -1, -1, -1, -1, -1, -1, -1, -1, -1, -1, -1, -1, -1, -1, -1, -1, -1, -1, -1, -1, -1, -1, -1, -1, -1, -1, -1, -1, -1, -1, -1, -1, -1, -1, -1, -1, -1, -1, -1, -1, -1, -1, -1, -1], "split_conditions": [59.0, 46.0, 62.0, 45.0, 48.0, 3.16, 31.7, 24.1, 0.13, 901.39, 50.0, 814.5, 3.28, 2.06, 71.0, 19.3, 4.0, 831.37, 2.58, 26.9, 23.0, 49.0, 1015.26, 7.9, 20.7, 18.2, 1009.81, 1.87, 2.77, 996.55, 4.44, 18.7, 20.4, 26.2, 24.9, 7.9, 972.05, 989.69, 18.5, 1.03, 0.14033563, 22.5, 0.13, 22.1, 13.0, 1013.98, 12.5, 0.06, 12.4, 1016.79, 959.7, -0.011245044, 20.9, 5.6, 1011.97, 857.97, 13.1, 9.5, 30.8, 996.03, 1024.15, 83.0, 1.0, -0.00023864543, 0.005509478, -0.003910322, -0.0007045278, 0.004878669, 0.10689067, 0.003309176, 0.0001389922, -0.005737892, 0.15784286, 0.020420816, 0.005330882, -0.0056043947, 0.0014653283, 0.045352474, 0.002342568, -0.0019533653, 0.014338624, -0.0043022186, -0.010770023, 0.002278781, -0.0030047903, 0.0026286403, -0.0023452658, 0.030808484, 0.0028436007, -0.00049426337, 0.007580266, 0.1058027, -0.00508664, -0.00560518, 0.13932891, -0.013260164, 0.07308085, -0.0012085414, 0.008902409, -0.0074463636, 0.0031665668, 0.11710673, 0.04331205, -0.0022916368, 0.017665934, 0.0766443, 0.012823476, -0.0022239536, 5.3666325e-05, -0.0041411775, 0.002888145, 0.009546183, -0.0015641954, 0.000112209855, 0.014567426, 0.005233687, 0.09868998, -0.0029636228, 0.029058356, -0.0074450946, -0.0016870108, 0.005732104, 0.14595173], "split_indices": [1, 1, 1, 1, 1, 2, 0, 0, 2, 3, 1, 3, 2, 2, 1, 0, 1, 3, 2, 0, 0, 1, 3, 0, 0, 0, 3, 2, 2, 3, 2, 0, 0, 0, 0, 0, 3, 3, 0, 2, 0, 0, 2, 0, 0, 3, 0, 2, 0, 3, 3, 0, 0, 2, 3, 3, 0, 0, 0, 3, 3, 1, 4, 0, 0, 0, 0, 0, 0, 0, 0, 0, 0, 0, 0, 0, 0, 0, 0, 0, 0, 0, 0, 0, 0, 0, 0, 0, 0, 0, 0, 0, 0, 0, 0, 0, 0, 0, 0, 0, 0, 0, 0, 0, 0, 0, 0, 0, 0, 0, 0, 0, 0, 0, 0, 0, 0, 0, 0, 0, 0, 0, 0], "split_type": [0, 0, 0, 0, 0, 0, 0, 0, 0, 0, 0, 0, 0, 0, 0, 0, 0, 0, 0, 0, 0, 0, 0, 0, 0, 0, 0, 0, 0, 0, 0, 0, 0, 0, 0, 0, 0, 0, 0, 0, 0, 0, 0, 0, 0, 0, 0, 0, 0, 0, 0, 0, 0, 0, 0, 0, 0, 0, 0, 0, 0, 0, 0, 0, 0, 0, 0, 0, 0, 0, 0, 0, 0, 0, 0, 0, 0, 0, 0, 0, 0, 0, 0, 0, 0, 0, 0, 0, 0, 0, 0, 0, 0, 0, 0, 0, 0, 0, 0, 0, 0, 0, 0, 0, 0, 0, 0, 0, 0, 0, 0, 0, 0, 0, 0, 0, 0, 0, 0, 0, 0, 0, 0], "sum_hessian": [281413.0, 69035.0, 212378.0, 31269.0, 37766.0, 9938.0, 202440.0, 28945.0, 2324.0, 5033.0, 32733.0, 9499.0, 439.0, 200529.0, 1911.0, 11216.0, 17729.0, 564.0, 1760.0, 350.0, 4683.0, 5410.0, 27323.0, 21.0, 9478.0, 47.0, 392.0, 182942.0, 17587.0, 1125.0, 786.0, 3853.0, 7363.0, 61.0, 17668.0, 5.0, 559.0, 1509.0, 251.0, 349.0, 1.0, 2020.0, 2663.0, 2662.0, 2748.0, 26175.0, 1148.0, 4.0, 17.0, 4896.0, 4582.0, 13.0, 34.0, 342.0, 50.0, 179427.0, 3515.0, 8675.0, 8912.0, 246.0, 879.0, 752.0, 34.0, 3163.0, 690.0, 1425.0, 5938.0, 55.0, 6.0, 1570.0, 16098.0, 1.0, 4.0, 103.0, 456.0, 566.0, 943.0, 36.0, 215.0, 217.0, 132.0, 1788.0, 232.0, 663.0, 2000.0, 1065.0, 1597.0, 27.0, 2721.0, 25791.0, 384.0, 4.0, 1144.0, 1.0, 3.0, 11.0, 6.0, 4771.0, 125.0, 154.0, 4428.0, 13.0, 21.0, 281.0, 61.0, 16.0, 34.0, 1346.0, 178081.0, 485.0, 3030.0, 125.0, 8550.0, 8810.0, 102.0, 236.0, 10.0, 865.0, 14.0, 479.0, 273.0, 33.0, 1.0], "tree_param": {"num_deleted": "0", "num_feature": "5", "num_nodes": "123", "size_leaf_vector": "1"}}, {"base_weights": [1.3869527e-05, -0.001223901, 0.00010854173, -0.0009482433, -0.021358714, 0.008316633, 7.373094e-05, -0.035338923, -0.00078705716, -0.02436357, 0.035327483, 0.0075844224, 0.12239176, -0.0062468033, 0.00010143369, -0.030799072, -0.044139322, 0.0031668362, -0.001769447, 0.007521159, -0.030985398, 0.1311734, -0.009748524, 0.055907264, 0.003699826, -0.008244925, 0.10023658, 0.0060075973, 3.8025464e-05, -0.0108467685, -0.008320153, -0.013455912, -0.0036233014, 0.0028335028, 0.121000215, -0.0021713485, 0.017466158, 0.122312404, -0.010840087, -0.035710372, 0.038727485, -0.009900844, 0.14280818, 0.03580096, 0.35838413, -0.002744038, 0.037428968, -1.3613101e-05, -0.02093874, -0.012741688, 0.39172179, 0.11966266, 0.0057199, -0.004495451, 6.410982e-05, 0.000104190105, 0.0045158155, 0.01628584, 0.11822117, -0.0015592183, -0.00010241287, 0.06603701, 0.004461075, 0.039765045, -0.00854786, -0.0034093787, -0.010769669, 0.09338519, -0.009791677, -0.011714228, 0.023549104, 0.1379447, -0.0071012625, -0.0010871799, 0.036885493, -6.9222195e-05, 0.018096728, 0.0013766733, -0.0040425756, 0.038241968, -0.006882682, -0.009526243, 0.21518019, 0.0027259653, -0.007893247, 0.01630047, -0.002125944, 0.0014529321, 1.315758e-06], "categories": [], "categories_nodes": [], "categories_segments": [], "categories_sizes": [], "default_left": [0, 0, 0, 0, 0, 0, 0, 0, 0, 0, 0, 0, 0, 0, 0, 0, 0, 0, 0, 0, 0, 0, 0, 0, 0, 0, 0, 0, 0, 0, 0, 0, 0, 0, 0, 0, 0, 0, 0, 0, 0, 0, 0, 0, 0, 0, 0, 0, 0, 0, 0, 0, 0, 0, 0, 0, 0, 0, 0, 0, 0, 0, 0, 0, 0, 0, 0, 0, 0, 0, 0, 0, 0, 0, 0, 0, 0, 0, 0, 0, 0, 0, 0, 0, 0, 0, 0, 0, 0], "id": 7, "left_children": [1, 3, 5, 7, 9, 11, 13, 15, 17, 19, 21, 23, -1, 25, 27, 29, 31, 33, 35, 37, 39, 41, -1, 43, 45, 47, 49, 51, 53, -1, -1, -1, -1, 55, 57, 59, 61, -1, 63, 65, 67, -1, -1, 69, 71, 73, 75, 77, 79, -1, 81, -1, 83, 85, 87, -1, -1, -1, -1, -1, -1, -1, -1, -1, -1, -1, -1, -1, -1, -1, -1, -1, -1, -1, -1, -1, -1, -1, -1, -1, -1, -1, -1, -1, -1, -1, -1, -1, -1], "loss_changes": [0.03297692, 0.11095831, 0.07469497, 0.10931938, 0.046850853, 0.31997183, 0.04558114, 0.002316177, 0.07627314, 0.054494783, 0.095269725, 0.20684248, 0.0, 0.24252954, 0.09706326, 4.813075e-05, 0.00012188032, 0.15315485, 0.121628225, 0.33507636, 0.07154338, 0.35541102, 0.0, 0.48586822, 0.22223032, 0.11660691, 0.89018536, 0.30888206, 0.030323857, 0.0, 0.0, 0.0, 0.0, 0.118413836, 0.1790015, 0.08531571, 0.16612437, 0.0, 0.11515112, 0.00050994754, 0.2824792, 0.0, 0.0, 0.25233203, 0.20464629, 0.095450066, 0.14140834, 0.042069025, 0.13346036, 0.0, 0.9878011, 0.0, 0.29700452, 0.22400144, 0.072771974, 0.0, 0.0, 0.0, 0.0, 0.0, 0.0, 0.0, 0.0, 0.0, 0.0, 0.0, 0.0, 0.0, 0.0, 0.0, 0.0, 0.0, 0.0, 0.0, 0.0, 0.0, 0.0, 0.0, 0.0, 0.0, 0.0, 0.0, 0.0, 0.0, 0.0, 0.0, 0.0, 0.0, 0.0], "parents": [2147483647, 0, 0, 1, 1, 2, 2, 3, 3, 4, 4, 5, 5, 6, 6, 7, 7, 8, 8, 9, 9, 10, 10, 11, 11, 13, 13, 14, 14, 15, 15, 16, 16, 17, 17, 18, 18, 19, 19, 20, 20, 21, 21, 23, 23, 24, 24, 25, 25, 26, 26, 27, 27, 28, 28, 33, 33, 34, 34, 35, 35, 36, 36, 38, 38, 39, 39, 40, 40, 43, 43, 44, 44, 45, 45, 46, 46, 47, 47, 48, 48, 50, 50, 52, 52, 53, 53, 54, 54], "right_children": [2, 4, 6, 8, 10, 12, 14, 16, 18, 20, 22, 24, -1, 26, 28, 30, 32, 34, 36, 38, 40, 42, -1, 44, 46, 48, 50, 52, 54, -1, -1, -1, -1, 56, 58, 60, 62, -1, 64, 66, 68, -1, -1, 70, 72, 74, 76, 78, 80, -1, 82, -1, 84, 86, 88, -1, -1, -1, -1, -1, -1, -1, -1, -1, -1, -1, -1, -1, -1, -1, -1, -1, -1, -1, -1, -1, -1, -1, -1, -1, -1, -1, -1, -1, -1, -1, -1, -1, -1], "split_conditions": [11.5, 3.09, 11.6, 37.0, 11.4, 4.7, 11.7, 0.06, 84.0, 7.2, 3.67, 928.07, 0.12239176, 3.16, 11.9, 8.8, 843.63, 1024.15, 2.0, 70.0, 1.0, 3.54, -0.009748524, 98.0, 1.03, 0.2, 1002.39, 2.0, 12.0, -0.0108467685, -0.008320153, -0.013455912, -0.0036233014, 11.1, 10.4, 94.0, 814.5, 0.122312404, 915.74, 42.0, 999.03, -0.009900844, 0.14280818, 866.44, 0.52, 1024.15, 989.95, 1003.3, 52.0, -0.012741688, 81.0, 0.11966266, 1009.01, 68.0, 12.2, 0.000104190105, 0.0045158155, 0.01628584, 0.11822117, -0.0015592183, -0.00010241287, 0.06603701, 0.004461075, 0.039765045, -0.00854786, -0.0034093787, -0.010769669, 0.09338519, -0.009791677, -0.011714228, 0.023549104, 0.1379447, -0.0071012625, -0.0010871799, 0.036885493, -6.9222195e-05, 0.018096728, 0.0013766733, -0.0040425756, 0.038241968, -0.006882682, -0.009526243, 0.21518019, 0.0027259653, -0.007893247, 0.01630047, -0.002125944, 0.0014529321, 1.315758e-06], "split_indices": [0, 2, 0, 1, 0, 2, 0, 2, 1, 0, 2, 3, 0, 2, 0, 0, 3, 3, 2, 1, 4, 2, 0, 1, 2, 2, 3, 1, 0, 0, 0, 0, 0, 0, 0, 1, 3, 0, 3, 1, 3, 0, 0, 3, 2, 3, 3, 3, 1, 0, 1, 0, 3, 1, 0, 0, 0, 0, 0, 0, 0, 0, 0, 0, 0, 0, 0, 0, 0, 0, 0, 0, 0, 0, 0, 0, 0, 0, 0, 0, 0, 0, 0, 0, 0, 0, 0, 0, 0], "split_type": [0, 0, 0, 0, 0, 0, 0, 0, 0, 0, 0, 0, 0, 0, 0, 0, 0, 0, 0, 0, 0, 0, 0, 0, 0, 0, 0, 0, 0, 0, 0, 0, 0, 0, 0, 0, 0, 0, 0, 0, 0, 0, 0, 0, 0, 0, 0, 0, 0, 0, 0, 0, 0, 0, 0, 0, 0, 0, 0, 0, 0, 0, 0, 0, 0, 0, 0, 0, 0, 0, 0, 0, 0, 0, 0, 0, 0, 0, 0, 0, 0, 0, 0, 0, 0, 0, 0, 0, 0], "sum_hessian": [281413.0, 19994.0, 261419.0, 19725.0, 269.0, 1103.0, 260316.0, 91.0, 19634.0, 256.0, 13.0, 1102.0, 1.0, 1135.0, 259181.0, 63.0, 28.0, 3907.0, 15727.0, 44.0, 212.0, 5.0, 8.0, 81.0, 1021.0, 1115.0, 20.0, 2752.0, 256429.0, 19.0, 44.0, 27.0, 1.0, 3897.0, 10.0, 15406.0, 321.0, 1.0, 43.0, 199.0, 13.0, 4.0, 1.0, 77.0, 4.0, 858.0, 163.0, 677.0, 438.0, 14.0, 6.0, 1.0, 2751.0, 1466.0, 254963.0, 3239.0, 658.0, 9.0, 1.0, 5805.0, 9601.0, 3.0, 318.0, 4.0, 39.0, 2.0, 197.0, 2.0, 11.0, 28.0, 49.0, 3.0, 1.0, 853.0, 5.0, 62.0, 101.0, 505.0, 172.0, 5.0, 433.0, 3.0, 3.0, 2490.0, 261.0, 61.0, 1405.0, 3146.0, 251817.0], "tree_param": {"num_deleted": "0", "num_feature": "5", "num_nodes": "89", "size_leaf_vector": "1"}}, {"base_weights": [1.3932221e-05, 0.00010310956, -0.0014497557, -5.207109e-06, 0.00444445, -0.006928398, -0.00062923983, 0.0009997784, -0.0002644723, -0.0017779883, 0.01451563, -0.003074275, -0.017582064, 0.0031550743, -0.001963192, 0.0012598591, -0.015846115, -0.0006074422, 0.00088579487, 0.11478228, -0.0023643028, 0.020402072, -0.009756369, -0.0005949252, -0.011032136, -0.020719524, 0.09019046, -0.0025797857, 0.009011558, 0.02851623, -0.002282995, -0.015526202, 0.001366489, 0.079527825, -0.016523574, 0.0071248636, -0.00069926865, 0.0002829891, 0.007267662, 0.1801041, -0.0096776495, -0.0047889925, 0.018050063, 0.019927712, 0.14422967, 0.031373583, -0.015678573, 0.0031787765, -0.01626714, -0.0066671916, -0.011668262, -0.010258874, 0.37068048, -0.0043391557, 0.052901063, 0.005265448, 0.03683025, 0.021480419, 0.16915783, -0.004348461, 0.0021565277, 0.016279716, -0.0051620174, 0.0042900234, 0.00036963212, -0.005260311, 0.017437015, 0.00163574, 0.02329997, -0.00011362031, -0.0008709053, 0.0020966947, -3.325488e-05, 0.009822425, 0.0014736265, 0.089961275, -0.008869033, -0.0010744641, -0.011612004, 0.004862378, 0.11903851, 0.0068372046, -0.0018917546, 0.0013228969, 0.05053459, -0.007178028, 0.0032318558, -0.00018793771, 0.013361394, -0.011514564, 0.0021288865, -0.012604592, -9.0201196e-05, -0.0055212704, 0.14176582, 0.00021607138, -0.0057756156, 0.0037126641, 0.049664244, 0.015889917, 0.00061437883, -0.011154955, 0.01749787, 0.011324944, -0.011237229, 0.09228946, -0.007710545, -0.0014384508, 0.014255496, 0.0013538505, -0.005778157], "categories": [], "categories_nodes": [], "categories_segments": [], "categories_sizes": [], "default_left": [0, 0, 0, 0, 0, 0, 0, 0, 0, 0, 0, 0, 0, 0, 0, 0, 0, 0, 0, 0, 0, 0, 0, 0, 0, 0, 0, 0, 0, 0, 0, 0, 0, 0, 0, 0, 0, 0, 0, 0, 0, 0, 0, 0, 0, 0, 0, 0, 0, 0, 0, 0, 0, 0, 0, 0, 0, 0, 0, 0, 0, 0, 0, 0, 0, 0, 0, 0, 0, 0, 0, 0, 0, 0, 0, 0, 0, 0, 0, 0, 0, 0, 0, 0, 0, 0, 0, 0, 0, 0, 0, 0, 0, 0, 0, 0, 0, 0, 0, 0, 0, 0, 0, 0, 0, 0, 0, 0, 0, 0, 0], "id": 8, "left_children": [1, 3, 5, 7, 9, 11, 13, 15, 17, 19, 21, 23, 25, 27, 29, 31, 33, 35, 37, 39, 41, 43, 45, 47, -1, 49, 51, 53, 55, 57, 59, 61, 63, -1, 65, 67, 69, 71, 73, 75, -1, 77, 79, 81, -1, 83, 85, 87, 89, 91, -1, -1, 93, 95, 97, 99, 101, 103, 105, 107, 109, -1, -1, -1, -1, -1, -1, -1, -1, -1, -1, -1, -1, -1, -1, -1, -1, -1, -1, -1, -1, -1, -1, -1, -1, -1, -1, -1, -1, -1, -1, -1, -1, -1, -1, -1, -1, -1, -1, -1, -1, -1, -1, -1, -1, -1, -1, -1, -1, -1, -1], "loss_changes": [0.0367325, 0.12473295, 0.0726444, 0.0674321, 0.4046685, 0.08637838, 0.07096724, 0.23254825, 0.081160896, 0.27308854, 0.3525306, 0.12923442, 0.19088453, 0.123082764, 0.10137971, 0.093573645, 0.1579721, 0.11252693, 0.18177764, 0.19790986, 0.19674401, 0.42389917, 0.11789745, 0.08533485, 0.0, 0.13867643, 0.57090354, 0.18100575, 0.18874224, 0.10323541, 0.09433791, 0.039638437, 0.09025272, 0.0, 0.061834067, 0.21900769, 0.11062885, 0.11402937, 0.2445408, 0.36042213, 0.0, 0.14532913, 0.28799832, 0.14915371, 0.0, 0.22471814, 0.092328146, 0.1830626, 0.14494169, 0.069301076, 0.0, 0.0, 0.20688158, 0.13552243, 0.2581593, 0.2453039, 0.3442318, 0.10113782, 0.14282134, 0.16277802, 0.16495655, 0.0, 0.0, 0.0, 0.0, 0.0, 0.0, 0.0, 0.0, 0.0, 0.0, 0.0, 0.0, 0.0, 0.0, 0.0, 0.0, 0.0, 0.0, 0.0, 0.0, 0.0, 0.0, 0.0, 0.0, 0.0, 0.0, 0.0, 0.0, 0.0, 0.0, 0.0, 0.0, 0.0, 0.0, 0.0, 0.0, 0.0, 0.0, 0.0, 0.0, 0.0, 0.0, 0.0, 0.0, 0.0, 0.0, 0.0, 0.0, 0.0, 0.0], "parents": [2147483647, 0, 0, 1, 1, 2, 2, 3, 3, 4, 4, 5, 5, 6, 6, 7, 7, 8, 8, 9, 9, 10, 10, 11, 11, 12, 12, 13, 13, 14, 14, 15, 15, 16, 16, 17, 17, 18, 18, 19, 19, 20, 20, 21, 21, 22, 22, 23, 23, 25, 25, 26, 26, 27, 27, 28, 28, 29, 29, 30, 30, 31, 31, 32, 32, 34, 34, 35, 35, 36, 36, 37, 37, 38, 38, 39, 39, 41, 41, 42, 42, 43, 43, 45, 45, 46, 46, 47, 47, 48, 48, 49, 49, 52, 52, 53, 53, 54, 54, 55, 55, 56, 56, 57, 57, 58, 58, 59, 59, 60, 60], "right_children": [2, 4, 6, 8, 10, 12, 14, 16, 18, 20, 22, 24, 26, 28, 30, 32, 34, 36, 38, 40, 42, 44, 46, 48, -1, 50, 52, 54, 56, 58, 60, 62, 64, -1, 66, 68, 70, 72, 74, 76, -1, 78, 80, 82, -1, 84, 86, 88, 90, 92, -1, -1, 94, 96, 98, 100, 102, 104, 106, 108, 110, -1, -1, -1, -1, -1, -1, -1, -1, -1, -1, -1, -1, -1, -1, -1, -1, -1, -1, -1, -1, -1, -1, -1, -1, -1, -1, -1, -1, -1, -1, -1, -1, -1, -1, -1, -1, -1, -1, -1, -1, -1, -1, -1, -1, -1, -1, -1, -1, -1, -1], "split_conditions": [99.0, 98.0, 972.05, 977.15, 1003.42, 0.06, 991.57, 4.44, 1.29, 857.97, 1.16, 1.0, 971.07, 12.5, 6.1, 9.0, 6.0, 32.0, 92.0, 0.2, 14.7, 1.1, 13.3, 966.89, -0.011032136, 956.99, 1.0, 991.12, 0.84, 0.97, 1007.92, 11.9, 11.0, 0.079527825, 975.45, 1015.82, 0.9, 1.35, 986.31, 6.1, -0.0096776495, 14.4, 5.09, 22.5, 0.14422967, 2.25, 2.51, 964.94, 12.6, 924.79, -0.011668262, -0.010258874, 12.7, 12.1, 12.1, 12.6, 979.66, 0.06, 1.03, 25.3, 23.6, 0.016279716, -0.0051620174, 0.0042900234, 0.00036963212, -0.005260311, 0.017437015, 0.00163574, 0.02329997, -0.00011362031, -0.0008709053, 0.0020966947, -3.325488e-05, 0.009822425, 0.0014736265, 0.089961275, -0.008869033, -0.0010744641, -0.011612004, 0.004862378, 0.11903851, 0.0068372046, -0.0018917546, 0.0013228969, 0.05053459, -0.007178028, 0.0032318558, -0.00018793771, 0.013361394, -0.011514564, 0.0021288865, -0.012604592, -9.0201196e-05, -0.0055212704, 0.14176582, 0.00021607138, -0.0057756156, 0.0037126641, 0.049664244, 0.015889917, 0.00061437883, -0.011154955, 0.01749787, 0.011324944, -0.011237229, 0.09228946, -0.007710545, -0.0014384508, 0.014255496, 0.0013538505, -0.005778157], "split_indices": [1, 1, 3, 3, 3, 2, 3, 2, 2, 3, 2, 4, 3, 0, 0, 1, 1, 1, 1, 2, 0, 2, 0, 3, 0, 3, 4, 3, 2, 2, 3, 0, 1, 0, 3, 3, 2, 2, 3, 0, 0, 0, 2, 0, 0, 2, 2, 3, 0, 3, 0, 0, 0, 0, 0, 0, 3, 2, 2, 0, 0, 0, 0, 0, 0, 0, 0, 0, 0, 0, 0, 0, 0, 0, 0, 0, 0, 0, 0, 0, 0, 0, 0, 0, 0, 0, 0, 0, 0, 0, 0, 0, 0, 0, 0, 0, 0, 0, 0, 0, 0, 0, 0, 0, 0, 0, 0, 0, 0, 0, 0], "split_type": [0, 0, 0, 0, 0, 0, 0, 0, 0, 0, 0, 0, 0, 0, 0, 0, 0, 0, 0, 0, 0, 0, 0, 0, 0, 0, 0, 0, 0, 0, 0, 0, 0, 0, 0, 0, 0, 0, 0, 0, 0, 0, 0, 0, 0, 0, 0, 0, 0, 0, 0, 0, 0, 0, 0, 0, 0, 0, 0, 0, 0, 0, 0, 0, 0, 0, 0, 0, 0, 0, 0, 0, 0, 0, 0, 0, 0, 0, 0, 0, 0, 0, 0, 0, 0, 0, 0, 0, 0, 0, 0, 0, 0, 0, 0, 0, 0, 0, 0, 0, 0, 0, 0, 0, 0, 0, 0, 0, 0, 0, 0], "sum_hessian": [281413.0, 265253.0, 16160.0, 258797.0, 6456.0, 2104.0, 14056.0, 53072.0, 205725.0, 3991.0, 2465.0, 1546.0, 558.0, 3663.0, 10393.0, 52266.0, 806.0, 158474.0, 47251.0, 19.0, 3972.0, 1984.0, 481.0, 1441.0, 105.0, 543.0, 15.0, 1851.0, 1812.0, 107.0, 10286.0, 329.0, 51937.0, 1.0, 805.0, 1859.0, 156615.0, 43174.0, 4077.0, 13.0, 6.0, 3551.0, 421.0, 1983.0, 1.0, 60.0, 421.0, 1162.0, 279.0, 307.0, 236.0, 11.0, 4.0, 1795.0, 56.0, 1598.0, 214.0, 103.0, 4.0, 7020.0, 3266.0, 7.0, 322.0, 533.0, 51404.0, 795.0, 10.0, 1817.0, 42.0, 136729.0, 19886.0, 2394.0, 40780.0, 344.0, 3733.0, 8.0, 5.0, 3430.0, 121.0, 420.0, 1.0, 1788.0, 195.0, 51.0, 9.0, 321.0, 100.0, 1065.0, 97.0, 143.0, 136.0, 46.0, 261.0, 1.0, 3.0, 1341.0, 454.0, 42.0, 14.0, 100.0, 1498.0, 48.0, 166.0, 81.0, 22.0, 2.0, 2.0, 6961.0, 59.0, 2943.0, 323.0], "tree_param": {"num_deleted": "0", "num_feature": "5", "num_nodes": "111", "size_leaf_vector": "1"}}, {"base_weights": [1.2534615e-05, -3.9361853e-06, 0.0066082147, -0.0001924197, 0.00057902274, 0.01165084, -0.014619759, -8.036084e-06, -0.001948074, -0.00069430476, 0.003101138, 0.0043203617, 0.054345187, -0.01946157, 0.20490715, -9.179364e-05, 0.0059393193, -0.0048387824, 0.00031001738, 0.00038224104, -0.0037939537, 0.0104094045, 0.0005550962, 0.10134529, 0.0014333504, 0.10884065, -0.019825019, -0.047022153, 0.00838948, 0.10118273, -0.008974507, 0.00030149322, -0.0010647821, -0.0422592, 0.0069519454, -0.005465697, 0.027561946, 0.0051479666, -0.0024855852, -0.021501863, 0.0005622384, 0.12907423, -0.0038675226, 0.0152360555, 0.0031426789, -0.0066772923, 0.0018880133, -0.013013686, 0.21756338, 0.004602956, -0.045418944, 0.015153067, 0.22857454, -0.04345722, 0.25461492, -0.0061903116, -0.05076104, 0.21504039, -0.004657286, -9.946011e-05, 0.00051234424, 0.004305356, -0.00039490135, -0.0054133916, -0.012992756, 0.038605615, 0.0019162927, 0.0030576072, -0.0018635711, 0.08864718, 0.0052591353, 0.001326498, 0.04428146, -0.0028714244, -0.00019649549, -0.013993275, -0.0015921938, 0.003821352, 0.000110496025, -0.0014667215, 0.0013060378, 0.0032567107, 0.010529162, 0.0005202305, 0.026229683, -0.00074682623, -0.0060591656, 0.0037155123, -0.00014183215, -0.0005430711, -0.0058121122, 0.0287225, 0.14227405, -0.0028139285, 0.0050388863, -0.014414128, -0.0068006366, 0.044339918, -0.003933909, 0.16641818, 0.035760514, -0.014373061, -0.007729342, 0.12054432, -0.005967604, -0.019324634, -0.013972316, -0.009160377, 0.1427648, 0.026786057, -0.0053282166], "categories": [], "categories_nodes": [], "categories_segments": [], "categories_sizes": [], "default_left": [0, 0, 0, 0, 0, 0, 0, 0, 0, 0, 0, 0, 0, 0, 0, 0, 0, 0, 0, 0, 0, 0, 0, 0, 0, 0, 0, 0, 0, 0, 0, 0, 0, 0, 0, 0, 0, 0, 0, 0, 0, 0, 0, 0, 0, 0, 0, 0, 0, 0, 0, 0, 0, 0, 0, 0, 0, 0, 0, 0, 0, 0, 0, 0, 0, 0, 0, 0, 0, 0, 0, 0, 0, 0, 0, 0, 0, 0, 0, 0, 0, 0, 0, 0, 0, 0, 0, 0, 0, 0, 0, 0, 0, 0, 0, 0, 0, 0, 0, 0, 0, 0, 0, 0, 0, 0, 0, 0, 0, 0, 0], "id": 9, "left_children": [1, 3, 5, 7, 9, 11, 13, 15, 17, 19, 21, 23, 25, 27, 29, 31, 33, 35, 37, 39, 41, 43, 45, 47, 49, 51, 53, 55, 57, -1, -1, 59, 61, 63, 65, 67, 69, 71, 73, 75, 77, -1, 79, 81, 83, 85, 87, 89, 91, 93, 95, 97, 99, 101, 103, -1, 105, 107, 109, -1, -1, -1, -1, -1, -1, -1, -1, -1, -1, -1, -1, -1, -1, -1, -1, -1, -1, -1, -1, -1, -1, -1, -1, -1, -1, -1, -1, -1, -1, -1, -1, -1, -1, -1, -1, -1, -1, -1, -1, -1, -1, -1, -1, -1, -1, -1, -1, -1, -1, -1, -1], "loss_changes": [0.030571755, 0.030844446, 0.07520867, 0.06866908, 0.22026463, 0.17721918, 0.14748037, 0.09562721, 0.13160211, 0.15208799, 0.42814478, 0.13570909, 0.3376388, 0.102484114, 0.10333887, 0.072440065, 0.13041346, 0.17975366, 0.1531156, 0.13326725, 0.37683302, 0.20846671, 0.16453181, 0.18889943, 0.07030262, 0.5349801, 0.24454716, 0.005562857, 0.18164197, 0.0, 0.0, 0.12001635, 0.21133742, 0.0006168708, 0.1786083, 0.10142106, 0.44635773, 0.42832342, 0.09306297, 0.11213127, 0.07921873, 0.0, 0.0986826, 0.31037903, 0.28170964, 0.15033168, 0.35712838, 0.0005349625, 0.17348212, 0.07568723, 0.000704553, 0.10692139, 0.6829926, 0.0014443249, 0.12921472, 0.0, 0.0003155321, 0.27075624, 0.080369234, 0.0, 0.0, 0.0, 0.0, 0.0, 0.0, 0.0, 0.0, 0.0, 0.0, 0.0, 0.0, 0.0, 0.0, 0.0, 0.0, 0.0, 0.0, 0.0, 0.0, 0.0, 0.0, 0.0, 0.0, 0.0, 0.0, 0.0, 0.0, 0.0, 0.0, 0.0, 0.0, 0.0, 0.0, 0.0, 0.0, 0.0, 0.0, 0.0, 0.0, 0.0, 0.0, 0.0, 0.0, 0.0, 0.0, 0.0, 0.0, 0.0, 0.0, 0.0, 0.0], "parents": [2147483647, 0, 0, 1, 1, 2, 2, 3, 3, 4, 4, 5, 5, 6, 6, 7, 7, 8, 8, 9, 9, 10, 10, 11, 11, 12, 12, 13, 13, 14, 14, 15, 15, 16, 16, 17, 17, 18, 18, 19, 19, 20, 20, 21, 21, 22, 22, 23, 23, 24, 24, 25, 25, 26, 26, 27, 27, 28, 28, 31, 31, 32, 32, 33, 33, 34, 34, 35, 35, 36, 36, 37, 37, 38, 38, 39, 39, 40, 40, 42, 42, 43, 43, 44, 44, 45, 45, 46, 46, 47, 47, 48, 48, 49, 49, 50, 50, 51, 51, 52, 52, 53, 53, 54, 54, 56, 56, 57, 57, 58, 58], "right_children": [2, 4, 6, 8, 10, 12, 14, 16, 18, 20, 22, 24, 26, 28, 30, 32, 34, 36, 38, 40, 42, 44, 46, 48, 50, 52, 54, 56, 58, -1, -1, 60, 62, 64, 66, 68, 70, 72, 74, 76, 78, -1, 80, 82, 84, 86, 88, 90, 92, 94, 96, 98, 100, 102, 104, -1, 106, 108, 110, -1, -1, -1, -1, -1, -1, -1, -1, -1, -1, -1, -1, -1, -1, -1, -1, -1, -1, -1, -1, -1, -1, -1, -1, -1, -1, -1, -1, -1, -1, -1, -1, -1, -1, -1, -1, -1, -1, -1, -1, -1, -1, -1, -1, -1, -1, -1, -1, -1, -1, -1, -1], "split_conditions": [6.57, 21.7, 94.0, 2.0, 1006.19, 88.0, 16.6, 1.87, 2.58, 999.69, 23.6, 12.1, 15.7, 1008.61, 20.5, 17.5, 857.97, 21.4, 3.03, 814.5, 4.0, 1011.97, 24.5, 11.3, 86.0, 14.8, 1014.74, 10.4, 1008.73, 0.10118273, -0.008974507, 15.2, 32.0, 7.9, 866.44, 11.5, 893.69, 1024.15, 974.9, 24.0, 831.37, 0.12907423, 31.2, 1010.71, 4.25, 24.3, 25.5, 77.0, 80.0, 993.7, 1008.03, 983.31, 90.0, 1011.76, 24.0, -0.0061903116, 997.05, 14.5, 14.1, -9.946011e-05, 0.00051234424, 0.004305356, -0.00039490135, -0.0054133916, -0.012992756, 0.038605615, 0.0019162927, 0.0030576072, -0.0018635711, 0.08864718, 0.0052591353, 0.001326498, 0.04428146, -0.0028714244, -0.00019649549, -0.013993275, -0.0015921938, 0.003821352, 0.000110496025, -0.0014667215, 0.0013060378, 0.0032567107, 0.010529162, 0.0005202305, 0.026229683, -0.00074682623, -0.0060591656, 0.0037155123, -0.00014183215, -0.0005430711, -0.0058121122, 0.0287225, 0.14227405, -0.0028139285, 0.0050388863, -0.014414128, -0.0068006366, 0.044339918, -0.003933909, 0.16641818, 0.035760514, -0.014373061, -0.007729342, 0.12054432, -0.005967604, -0.019324634, -0.013972316, -0.009160377, 0.1427648, 0.026786057, -0.0053282166], "split_indices": [2, 0, 1, 2, 3, 1, 0, 2, 2, 3, 0, 0, 0, 3, 0, 0, 3, 0, 2, 3, 1, 3, 0, 0, 1, 0, 3, 0, 3, 0, 0, 0, 1, 0, 3, 0, 3, 3, 3, 0, 3, 0, 0, 3, 2, 0, 0, 1, 1, 3, 3, 3, 1, 3, 0, 0, 3, 0, 0, 0, 0, 0, 0, 0, 0, 0, 0, 0, 0, 0, 0, 0, 0, 0, 0, 0, 0, 0, 0, 0, 0, 0, 0, 0, 0, 0, 0, 0, 0, 0, 0, 0, 0, 0, 0, 0, 0, 0, 0, 0, 0, 0, 0, 0, 0, 0, 0, 0, 0, 0, 0], "split_type": [0, 0, 0, 0, 0, 0, 0, 0, 0, 0, 0, 0, 0, 0, 0, 0, 0, 0, 0, 0, 0, 0, 0, 0, 0, 0, 0, 0, 0, 0, 0, 0, 0, 0, 0, 0, 0, 0, 0, 0, 0, 0, 0, 0, 0, 0, 0, 0, 0, 0, 0, 0, 0, 0, 0, 0, 0, 0, 0, 0, 0, 0, 0, 0, 0, 0, 0, 0, 0, 0, 0, 0, 0, 0, 0, 0, 0, 0, 0, 0, 0, 0, 0, 0, 0, 0, 0, 0, 0, 0, 0, 0, 0, 0, 0, 0, 0, 0, 0, 0, 0, 0, 0, 0, 0, 0, 0, 0, 0, 0, 0], "sum_hessian": [281413.0, 280713.0, 700.0, 212128.0, 68585.0, 566.0, 134.0, 191968.0, 20160.0, 45576.0, 23009.0, 484.0, 82.0, 132.0, 2.0, 189303.0, 2665.0, 8841.0, 11319.0, 33828.0, 11748.0, 5944.0, 17065.0, 13.0, 471.0, 47.0, 35.0, 66.0, 66.0, 1.0, 1.0, 134812.0, 54491.0, 54.0, 2611.0, 8674.0, 167.0, 4145.0, 7174.0, 275.0, 33553.0, 1.0, 11747.0, 3571.0, 2373.0, 2655.0, 14410.0, 7.0, 6.0, 442.0, 29.0, 27.0, 20.0, 33.0, 2.0, 9.0, 57.0, 3.0, 63.0, 92966.0, 41846.0, 874.0, 53617.0, 3.0, 51.0, 11.0, 2600.0, 394.0, 8280.0, 5.0, 162.0, 4125.0, 20.0, 1472.0, 5702.0, 107.0, 168.0, 525.0, 33028.0, 10449.0, 1298.0, 2927.0, 644.0, 2335.0, 38.0, 2028.0, 627.0, 2645.0, 11765.0, 3.0, 4.0, 5.0, 1.0, 206.0, 236.0, 25.0, 4.0, 4.0, 23.0, 4.0, 16.0, 25.0, 8.0, 1.0, 1.0, 10.0, 47.0, 2.0, 1.0, 7.0, 56.0], "tree_param": {"num_deleted": "0", "num_feature": "5", "num_nodes": "111", "size_leaf_vector": "1"}}]}, "name": "gbtree"}, "learner_model_param": {"base_score": "3.7642185E-2", "boost_from_average": "1", "num_class": "0", "num_feature": "5", "num_target": "1"}, "objective": {"name": "reg:squarederror", "reg_loss_param": {"scale_pos_weight": "1"}}}, "version": [2, 0, 3]}